tree
version=v3
num_class=3
num_tree_per_iteration=3
label_index=0
max_feature_idx=3
objective=multiclass num_class:3
feature_names=sepal.length sepal.width petal.length petal.width
feature_infos=[4.4000000000000004:7.9000000000000004] [2:4.2000000000000002] [1:6.9000000000000004] [0.10000000000000001:2.5]
tree_sizes=339 445 444 442 439 543 548 440 544 442 538 545 548 539 545 445 440 547 443 439 545 546 442 548 442 545 540 547 544 547 548 446 644 551 446 646 551 643 548 548 546 544 552 646 650 446 650 545 448 650 550 554 650 656 555 548 760 551 653 552 661 648 758 555 546 652 554 542 650 558 546 545 555 649 549 556 859 757 556 446 754 449 759 548 561 652 548 560 653 649 554 551 447 561 447 655 561 863 650 663 552 551 668 655 652 669 553 655 561 652 759 667 760 758 567 549 554 672 550 552 672 652 657 563 551 551 568 655 650 566 554 659 569 554 655 565 553 664 676 657 656 676 550 556 674 452 554 672 658 555 679 552 556 569 556 665 567 658 654 460 554 661 564 556 663 566 660 765 674 656 557 457 554 560 567 765 763 567 556 665 461 664 660 462 767 557 460 556 662 461 660 554 353 557 667 352 561 659 354 556 667 353 559 664 352 774 665 354 558 561 353 666 665 352 561 664 355 561 661 350 778 774 354 773 664 353 665 666 353 773 455 353 667 669 355 667 666 352 665 667 354 670 564 353 778 457 353 563 782 354 671 671 352 564 563 352 672 457 354 563 673 354 672 456 353 672 777 354 778 456 353 783 565 223 566 673 223 566 672 223 461 459 352 781 560 223 780 670 223 671 676 223 567 673 223 673 674 351 565 894

Tree=0
num_leaves=2
num_cat=0
split_feature=2
split_gain=70
threshold=2.4500000000000006
decision_type=2
left_child=-1
right_child=-2
leaf_value=-0.71583509190315331 -1.3247829381912672
leaf_weight=11.166802287101744 23.318910658359528
leaf_count=34 71
internal_value=-1.1276
internal_weight=0
internal_count=105
is_linear=0
shrinkage=1


Tree=1
num_leaves=3
num_cat=0
split_feature=3 3
split_gain=16.7391 34.8037
threshold=0.50000000000000011 1.6500000000000001
decision_type=2 2
left_child=-1 -2
right_child=1 -3
leaf_value=-1.2733399759730359 -0.75742268519765843 -1.2374740680581702
leaf_weight=11.152652621269224 13.180407643318178 11.152652621269224
leaf_count=33 39 33
internal_value=-1.07044 -0.977446
internal_weight=0 24.3331
internal_count=105 72
is_linear=0
shrinkage=1


Tree=2
num_leaves=3
num_cat=0
split_feature=2 2
split_gain=55.7332 0.846991
threshold=4.9500000000000011 4.2500000000000009
decision_type=2 2
left_child=1 -1
right_child=-2 -3
leaf_value=-1.2986122886681097 -0.73390640631516857 -1.2167941068499279
leaf_weight=16.333333820104603 11.333333671092985 7.3333335518836966
leaf_count=49 34 22
internal_value=-1.09861 -1.27326
internal_weight=0 23.6667
internal_count=105 71
is_linear=0
shrinkage=1


Tree=3
num_leaves=3
num_cat=0
split_feature=2 2
split_gain=42.4302 0.00177197
threshold=2.4500000000000006 4.9500000000000011
decision_type=2 2
left_child=-1 -2
right_child=1 -3
leaf_value=0.28559014569955915 -0.18193501157715808 -0.17820061895476047
leaf_weight=12.687396347522734 10.825403511524202 9.580533951520918
leaf_count=34 37 34
internal_value=0 -0.180182
internal_weight=0 20.4059
internal_count=105 71
is_linear=0
shrinkage=0.2


Tree=4
num_leaves=3
num_cat=0
split_feature=2 2
split_gain=12.1538 24.8556
threshold=2.4500000000000006 4.9500000000000011
decision_type=2 2
left_child=-1 -2
right_child=1 -3
leaf_value=-0.18348940818311121 0.25618350844772209 -0.15265568417988304
leaf_weight=10.08097583055496 13.640068143606188 10.547725528478621
leaf_count=34 37 34
internal_value=0 0.0778984
internal_weight=0 24.1878
internal_count=105 71
is_linear=0
shrinkage=0.2


Tree=5
num_leaves=4
num_cat=0
split_feature=2 0 2
split_gain=34.7999 0.117126 0.00170553
threshold=4.7500000000000009 5.0500000000000007 3.9500000000000006
decision_type=2 2 2
left_child=1 -1 -3
right_child=-2 2 -4
leaf_value=-0.15069310007356573 0.23827642999826557 -0.18111657758930566 -0.18570748966068398
leaf_weight=6.418456822633746 14.243834584951399 5.8256099224090558 7.2840080261230469
leaf_count=22 39 20 24
internal_value=0 -0.172829 -0.183667
internal_weight=0 19.5281 13.1096
internal_count=105 66 44
is_linear=0
shrinkage=0.2


Tree=6
num_leaves=4
num_cat=0
split_feature=2 0 1
split_gain=28.6316 0.000431683 5.60273e-05
threshold=2.4500000000000006 5.9500000000000011 2.9500000000000006
decision_type=2 2 2
left_child=-1 -2 -3
right_child=1 2 -4
leaf_value=0.22951898143691998 -0.16954445650521238 -0.16691999462631205 -0.16779365568898649
leaf_weight=12.404853820800783 5.5257081687450436 5.2889715284109098 6.6001067906618118
leaf_count=34 22 22 27
internal_value=0 -0.168084 -0.167405
internal_weight=0 17.4148 11.8891
internal_count=105 71 49
is_linear=0
shrinkage=0.2


Tree=7
num_leaves=3
num_cat=0
split_feature=3 3
split_gain=8.00334 14.8756
threshold=0.50000000000000011 1.6500000000000001
decision_type=2 2
left_child=-1 -2
right_child=1 -3
leaf_value=-0.16856630846738463 0.19010470455371528 -0.13726313243462118
leaf_weight=8.1836562007665652 14.12017595767975 9.1499996185302717
leaf_count=33 39 33
internal_value=0 0.0613813
internal_weight=0 23.2702
internal_count=105 72
is_linear=0
shrinkage=0.2


Tree=8
num_leaves=4
num_cat=0
split_feature=3 3 2
split_gain=23.3847 1.17573 0.000680973
threshold=1.6500000000000001 1.3500000000000003 2.4500000000000006
decision_type=2 2 2
left_child=1 2 -1
right_child=-2 -3 -4
leaf_value=-0.16812462054957766 0.21843693466825298 -0.058998254297624834 -0.17104744148820111
leaf_weight=8.3655720949173027 12.080155313014982 5.4219598472118369 5.1522421538829795
leaf_count=34 33 18 20
internal_value=0 -0.13768 -0.169239
internal_weight=0 18.9398 13.5178
internal_count=105 72 54
is_linear=0
shrinkage=0.2


Tree=9
num_leaves=3
num_cat=0
split_feature=2 2
split_gain=20.3943 0.00028871
threshold=2.4500000000000006 4.9500000000000011
decision_type=2 2
left_child=-1 -2
right_child=1 -3
leaf_value=0.19877828643941028 -0.16054728009345987 -0.1587666361996169
leaf_weight=11.215067327022554 7.7687575072050077 6.8569912314414978
leaf_count=34 37 34
internal_value=0 -0.159712
internal_weight=0 14.6257
internal_count=105 71
is_linear=0
shrinkage=0.2


Tree=10
num_leaves=4
num_cat=0
split_feature=2 2 1
split_gain=6.2618 12.3693 0.643209
threshold=2.4500000000000006 5.0500000000000007 2.8500000000000001
decision_type=2 2 2
left_child=-1 2 -2
right_child=1 -3 -4
leaf_value=-0.16088031058212227 0.12776630964245447 -0.14780028163571732 0.21511638148919379
leaf_weight=7.0650155097246197 6.7248831838369387 7.5754647105932227 6.7631578296422958
leaf_count=34 20 31 20
internal_value=0 0.0567058 0.171565
internal_weight=0 21.0635 13.488
internal_count=105 71 40
is_linear=0
shrinkage=0.2


Tree=11
num_leaves=4
num_cat=0
split_feature=3 3 1
split_gain=15.5083 1.23672 0.000515586
threshold=1.6500000000000001 1.3500000000000003 2.9500000000000006
decision_type=2 2 2
left_child=1 2 -1
right_child=-2 -3 -4
leaf_value=-0.16177688423765843 0.18133827137086647 -0.041364057952933062 -0.15899445932646394
leaf_weight=4.3415047824382835 11.351399838924406 5.1061614751815787 6.8938000500202179
leaf_count=20 33 18 34
internal_value=0 -0.122978 -0.16007
internal_weight=0 16.3415 11.2353
internal_count=105 72 54
is_linear=0
shrinkage=0.2


Tree=12
num_leaves=4
num_cat=0
split_feature=2 1 2
split_gain=14.856 0.000164202 4.04008e-06
threshold=2.4500000000000006 2.8500000000000001 5.0500000000000007
decision_type=2 2 2
left_child=-1 -2 -3
right_child=1 2 -4
leaf_value=0.17913776727758504 -0.15432248434524953 -0.15268497149640434 -0.15299628075472865
leaf_weight=9.6513097286224383 5.4368997663259488 3.3121886849403381 3.3581332415342331
leaf_count=34 31 20 20
internal_value=0 -0.153507 -0.152842
internal_weight=0 12.1072 6.67032
internal_count=105 71 40
is_linear=0
shrinkage=0.2


Tree=13
num_leaves=4
num_cat=0
split_feature=2 2 3
split_gain=4.56892 8.82642 0.359176
threshold=2.4500000000000006 5.0500000000000007 1.3500000000000003
decision_type=2 2 2
left_child=-1 2 -2
right_child=1 -3 -4
leaf_value=-0.15384913875659412 0.18444791736606081 -0.13794508018903021 0.1162647147003692
leaf_weight=5.7286229133605984 6.0046880245208758 6.5373702943325034 6.3674697577953339
leaf_count=34 20 31 20
internal_value=0 0.0500312 0.149357
internal_weight=0 18.9095 12.3722
internal_count=105 71 40
is_linear=0
shrinkage=0.2


Tree=14
num_leaves=4
num_cat=0
split_feature=3 3 1
split_gain=10.927 1.15396 0.000473283
threshold=1.6500000000000001 1.3500000000000003 2.9500000000000006
decision_type=2 2 2
left_child=1 2 -1
right_child=-2 -3 -4
leaf_value=-0.15533140941687429 0.15963390763711638 -0.032465802085600508 -0.15239942147598018
leaf_weight=3.6392064243555087 10.244306564331053 4.7808738052844992 5.5770425349473953
leaf_count=20 33 18 34
internal_value=0 -0.112197 -0.153557
internal_weight=0 13.9971 9.21625
internal_count=105 72 54
is_linear=0
shrinkage=0.2


Tree=15
num_leaves=3
num_cat=0
split_feature=2 0
split_gain=11.0367 5.56421e-05
threshold=2.4500000000000006 6.1500000000000012
decision_type=2 2
left_child=-1 -2
right_child=1 -3
leaf_value=0.16624240492148004 -0.14947754784639342 -0.14852799605758876
leaf_weight=8.0408958941698092 4.5891522616147977 5.3417245000600815
leaf_count=34 32 39
internal_value=0 -0.148967
internal_weight=0 9.93088
internal_count=105 71
is_linear=0
shrinkage=0.2


Tree=16
num_leaves=3
num_cat=0
split_feature=3 3
split_gain=3.10778 4.9193
threshold=0.50000000000000011 1.6500000000000001
decision_type=2 2
left_child=-1 -2
right_child=1 -3
leaf_value=-0.14766242927820558 0.12293322661280288 -0.10126912067094054
leaf_weight=4.337322041392329 10.848751008510591 6.1244536191225043
leaf_count=33 39 33
internal_value=0 0.0420341
internal_weight=0 16.9732
internal_count=105 72
is_linear=0
shrinkage=0.2


Tree=17
num_leaves=4
num_cat=0
split_feature=2 2 2
split_gain=9.13263 0.591574 0.000587343
threshold=4.9500000000000011 4.4500000000000011 2.4500000000000006
decision_type=2 2 2
left_child=1 2 -1
right_child=-2 -3 -4
leaf_value=-0.14756187994511324 0.14945273797236477 -0.054351788206852318 -0.15116298057648539
leaf_weight=4.4412013590335864 9.4271509647369367 4.0731349736452103 3.0598815530538559
leaf_count=34 34 17 20
internal_value=0 -0.115712 -0.149031
internal_weight=0 11.5742 7.50108
internal_count=105 71 54
is_linear=0
shrinkage=0.2


Tree=18
num_leaves=3
num_cat=0
split_feature=2 0
split_gain=8.38208 8.06701e-05
threshold=2.4500000000000006 6.1500000000000012
decision_type=2 2
left_child=-1 -2
right_child=1 -3
leaf_value=0.15787010826665626 -0.14630860998299797 -0.14504718378974607
leaf_weight=6.5819004178047189 3.8212206512689573 4.32111756503582
leaf_count=34 32 39
internal_value=0 -0.145639
internal_weight=0 8.14234
internal_count=105 71
is_linear=0
shrinkage=0.2


Tree=19
num_leaves=3
num_cat=0
split_feature=2 2
split_gain=2.79111 4.86793
threshold=5.0500000000000007 2.4500000000000006
decision_type=2 2
left_child=1 -1
right_child=-2 -3
leaf_value=-0.14563537495975629 -0.12428622048504573 0.1242482299649858
leaf_weight=3.6677739247679737 4.962378352880477 9.8598464876413328
leaf_count=34 31 40
internal_value=0 0.0510741
internal_weight=0 13.5276
internal_count=105 74
is_linear=0
shrinkage=0.2


Tree=20
num_leaves=4
num_cat=0
split_feature=2 1 1
split_gain=6.85215 1.44301 0.0247791
threshold=5.0500000000000007 2.8500000000000001 3.0500000000000003
decision_type=2 2 2
left_child=1 -1 -3
right_child=-2 2 -4
leaf_value=0.0043256913817279518 0.15227036182129272 -0.13547778493219942 -0.15975360957945828
leaf_weight=3.6493776738643664 7.3895138800144187 2.7347964346408844 4.3684984594583511
leaf_count=21 31 18 35
internal_value=0 -0.0978921 -0.150407
internal_weight=0 10.7527 7.10329
internal_count=105 74 53
is_linear=0
shrinkage=0.2


Tree=21
num_leaves=4
num_cat=0
split_feature=3 1 0
split_gain=5.77794 0.0613686 2.35233e-05
threshold=0.50000000000000011 3.0500000000000003 6.1500000000000012
decision_type=2 2 2
left_child=-1 2 -2
right_child=1 -3 -4
leaf_value=0.15057428746543733 -0.14358584195438909 -0.10072776387853802 -0.14270717699571556
leaf_weight=5.0175014734268188 2.9172832742333412 1.865924574434757 2.0932196006178856
leaf_count=33 30 19 23
internal_value=0 -0.131689 -0.143219
internal_weight=0 6.87643 5.0105
internal_count=105 72 53
is_linear=0
shrinkage=0.2


Tree=22
num_leaves=3
num_cat=0
split_feature=3 3
split_gain=1.50017 2.10421
threshold=1.6500000000000001 1.0500000000000003
decision_type=2 2
left_child=1 -1
right_child=-2 -3
leaf_value=-0.080119234872733702 -0.088904957854303926 0.10498384412663363
leaf_weight=3.646103769540785 4.8190220594406137 7.5293835252523422
leaf_count=38 33 34
internal_value=0 0.0445923
internal_weight=0 11.1755
internal_count=105 72
is_linear=0
shrinkage=0.2


Tree=23
num_leaves=4
num_cat=0
split_feature=3 3 1
split_gain=4.41865 0.803615 0.000355006
threshold=1.6500000000000001 1.3500000000000003 2.9500000000000006
decision_type=2 2 2
left_child=1 2 -1
right_child=-2 -3 -4
leaf_value=-0.14483383105029021 0.12464483112269009 -0.020817294419501923 -0.14140825538181406
leaf_weight=2.1669368445873243 6.9122472852468499 3.8454071879386902 2.7405973374843597
leaf_count=20 33 18 34
internal_value=0 -0.0892774 -0.142921
internal_weight=0 8.75294 4.90753
internal_count=105 72 54
is_linear=0
shrinkage=0.2


Tree=24
num_leaves=3
num_cat=0
split_feature=2 0
split_gain=5.07501 5.43808e-05
threshold=2.4500000000000006 6.1500000000000012
decision_type=2 2
left_child=-1 -2
right_child=1 -3
leaf_value=0.1479379858149634 -0.14196613516454923 -0.14070977756713157
leaf_weight=4.328362800180912 2.6488140672445297 2.872635580599308
leaf_count=34 32 39
internal_value=0 -0.141312
internal_weight=0 5.52145
internal_count=105 71
is_linear=0
shrinkage=0.2


Tree=25
num_leaves=4
num_cat=0
split_feature=2 0 2
split_gain=1.72171 2.48696 0.502145
threshold=5.0500000000000007 5.6500000000000012 1.6500000000000001
decision_type=2 2 2
left_child=1 2 -1
right_child=-2 -3 -4
leaf_value=-0.14182376567349916 -0.11062034294497324 0.12717731828098924 -0.0035430369961735354
leaf_weight=2.0816532894968969 3.7917369678616533 6.2111547514796257 2.1204128861427307
leaf_count=29 31 32 13
internal_value=0 0.0467845 -0.0720457
internal_weight=0 10.4132 4.20207
internal_count=105 74 42
is_linear=0
shrinkage=0.2


Tree=26
num_leaves=4
num_cat=0
split_feature=2 1 1
split_gain=3.86378 1.4382 0.0302221
threshold=5.0500000000000007 2.8500000000000001 3.0500000000000003
decision_type=2 2 2
left_child=1 -1 -3
right_child=-2 2 -4
leaf_value=0.024112779053282091 0.13434381444690097 -0.12959235800491695 -0.1610042686345062
leaf_weight=3.1537115052342397 5.5374305397272119 2.0888235792517662 2.963165819644928
leaf_count=21 31 18 35
internal_value=0 -0.0818618 -0.148017
internal_weight=0 8.2057 5.05199
internal_count=105 74 53
is_linear=0
shrinkage=0.2


Tree=27
num_leaves=4
num_cat=0
split_feature=2 3 3
split_gain=3.93808 3.83527e-05 1.9129e-05
threshold=2.4500000000000006 1.8500000000000003 1.4500000000000002
decision_type=2 2 2
left_child=-1 2 -2
right_child=1 -3 -4
leaf_value=0.14442171403244147 -0.13974066030188001 -0.13893354687524609 -0.14072972236746345
leaf_weight=3.433611236512661 1.6769772768020632 1.3687629736959932 1.4659028984606264
leaf_count=34 26 24 21
internal_value=0 -0.139817 -0.140202
internal_weight=0 4.51164 3.14288
internal_count=105 71 47
is_linear=0
shrinkage=0.2


Tree=28
num_leaves=4
num_cat=0
split_feature=2 0 0
split_gain=1.13865 1.86098 0.42876
threshold=5.0500000000000007 6.0500000000000007 5.4500000000000011
decision_type=2 2 2
left_child=1 2 -1
right_child=-2 -3 -4
leaf_value=-0.079234156456702731 -0.096928009901059153 0.17085846740940785 0.026154288511239573
leaf_weight=2.8000003397464734 3.2328267991542825 2.9859839081764221 3.4427661523222923
leaf_count=36 31 18 20
internal_value=0 0.0409988 -0.0211144
internal_weight=0 9.22875 6.24277
internal_count=105 74 56
is_linear=0
shrinkage=0.2


Tree=29
num_leaves=4
num_cat=0
split_feature=2 2 2
split_gain=2.88553 0.228898 0.000453136
threshold=4.7500000000000009 4.4500000000000011 2.4500000000000006
decision_type=2 2 2
left_child=1 2 -1
right_child=-2 -3 -4
leaf_value=-0.13796010795440913 0.088025085550508475 -0.047734161989710866 -0.14258511101697574
leaf_weight=1.643607556819916 7.0479918047785759 1.5576738044619558 1.7490820102393625
leaf_count=34 39 12 20
internal_value=0 -0.111204 -0.140345
internal_weight=0 4.95036 3.39269
internal_count=105 66 54
is_linear=0
shrinkage=0.2


Tree=30
num_leaves=4
num_cat=0
split_feature=3 1 0
split_gain=2.78022 0.0479786 3.45798e-05
threshold=0.50000000000000011 3.0500000000000003 6.0500000000000007
decision_type=2 2 2
left_child=-1 2 -2
right_child=1 -3 -4
leaf_value=0.14121380988584231 -0.13955788201395233 -0.089051181134001178 -0.1381660213307708
leaf_weight=2.6016945466399193 1.5023835934698588 1.0578368678689001 1.3605885691940782
leaf_count=33 25 19 28
internal_value=0 -0.125448 -0.138896
internal_weight=0 3.92081 2.86297
internal_count=105 72 53
is_linear=0
shrinkage=0.2


Tree=31
num_leaves=3
num_cat=0
split_feature=2 3
split_gain=0.805063 0.661779
threshold=5.0500000000000007 1.0500000000000003
decision_type=2 2
left_child=1 -1
right_child=-2 -3
leaf_value=-0.054776975521910277 -0.085431067046799675 0.072618576144022937
leaf_weight=2.2413141056895238 2.8482563346624383 5.9902033507823944
leaf_count=38 31 36
internal_value=0 0.0379307
internal_weight=0 8.23152
internal_count=105 74
is_linear=0
shrinkage=0.2


Tree=32
num_leaves=5
num_cat=0
split_feature=2 1 0 0
split_gain=2.17008 0.92105 0.167165 0.185042
threshold=5.1500000000000012 2.8500000000000001 6.0500000000000007 5.7500000000000009
decision_type=2 2 2 2
left_child=1 -1 3 -3
right_child=-2 2 -4 -5
leaf_value=0.020523572455020862 0.15530206710754019 -0.13700153479799254 -0.17202470538470638 -0.028458111310393608
leaf_weight=3.8317033424973488 2.8270022198557854 1.3438927084207541 1.4208785369992254 1.1797330491244791
leaf_count=26 23 35 14 7
internal_value=0 -0.0493138 -0.117154 -0.0862602
internal_weight=0 7.77621 3.9445 2.52363
internal_count=105 82 56 42
is_linear=0
shrinkage=0.2


Tree=33
num_leaves=4
num_cat=0
split_feature=2 0 2
split_gain=2.58148 4.73683e-05 2.05291e-06
threshold=2.4500000000000006 6.0500000000000007 5.1500000000000012
decision_type=2 2 2
left_child=-1 -2 -3
right_child=1 2 -4
leaf_value=0.14081362272225495 -0.13876612092284524 -0.13742251453978213 -0.13698783560708944
leaf_weight=2.2984580546617508 1.4135041125118735 0.87731964513659455 0.86123914644122124
leaf_count=34 27 21 23
internal_value=0 -0.137906 -0.137207
internal_weight=0 3.15206 1.73856
internal_count=105 71 44
is_linear=0
shrinkage=0.2


Tree=34
num_leaves=3
num_cat=0
split_feature=3 3
split_gain=0.676062 0.543542
threshold=1.6500000000000001 1.0500000000000003
decision_type=2 2
left_child=1 -1
right_child=-2 -3
leaf_value=-0.044084508863955513 -0.066639250926359653 0.080198013257187367
leaf_weight=2.0132680982351303 3.4068738408386707 4.6787040308117867
leaf_count=38 33 34
internal_value=0 0.0428078
internal_weight=0 6.69197
internal_count=105 72
is_linear=0
shrinkage=0.2


Tree=35
num_leaves=5
num_cat=0
split_feature=3 1 2 2
split_gain=1.92006 1.03465 0.227738 0.00036432
threshold=1.8500000000000003 2.6500000000000008 4.7500000000000009 3.4000000000000004
decision_type=2 2 2 2
left_child=1 -1 3 -3
right_child=-2 2 -4 -5
leaf_value=0.071392080154391413 0.15491179170344943 -0.13601479755403675 -0.053687792342377784 -0.14095721325847058
leaf_weight=2.049476895481348 2.5280685722827911 0.9499006196856502 2.4413361549377441 1.6038614362478254
leaf_count=14 24 33 11 23
internal_value=0 -0.0482683 -0.0973647 -0.139119
internal_weight=0 7.04458 4.9951 2.55376
internal_count=105 81 67 56
is_linear=0
shrinkage=0.2


Tree=36
num_leaves=4
num_cat=0
split_feature=3 1 0
split_gain=1.79455 0.0473515 2.10115e-05
threshold=0.50000000000000011 3.0500000000000003 6.0500000000000007
decision_type=2 2 2
left_child=-1 2 -2
right_child=1 -3 -4
leaf_value=0.13839234446832824 -0.13792846025915712 -0.078936319185364132 -0.13662730553362637
leaf_weight=1.7313393987715242 1.0949294287711389 0.76829689741134632 0.90819966234266747
leaf_count=33 25 19 28
internal_value=0 -0.121148 -0.137339
internal_weight=0 2.77143 2.00313
internal_count=105 72 53
is_linear=0
shrinkage=0.2


Tree=37
num_leaves=5
num_cat=0
split_feature=2 0 3 2
split_gain=0.464457 1.28851 0.438089 1.35761
threshold=5.0500000000000007 6.0500000000000007 1.4500000000000002 2.4500000000000006
decision_type=2 2 2 2
left_child=1 2 3 -1
right_child=-2 -3 -4 -5
leaf_value=-0.1374625516356448 -0.071203695891328508 0.16541080909025607 -0.093227393460694807 0.14738128913766116
leaf_weight=1.1502298861742022 2.3333162926137447 2.0390735045075417 2.0873606577515602 1.6007617115974424
leaf_count=34 31 18 8 14
internal_value=0 0.0320606 -0.0241385 0.0282839
internal_weight=0 6.87743 4.83835 2.75099
internal_count=105 74 56 48
is_linear=0
shrinkage=0.2


Tree=38
num_leaves=4
num_cat=0
split_feature=3 3 0
split_gain=1.48027 0.744867 7.23586e-05
threshold=1.8500000000000003 1.3500000000000003 5.0500000000000007
decision_type=2 2 2
left_child=1 2 -1
right_child=-2 -3 -4
leaf_value=-0.14083887169244011 0.15150667373549551 0.0046609024259134761 -0.13843227763205521
leaf_weight=0.80669311806559596 2.0886583551764488 4.457091361284256 1.3133528511971233
leaf_count=21 24 27 33
internal_value=0 -0.0417583 -0.139348
internal_weight=0 6.57714 2.12005
internal_count=105 81 54
is_linear=0
shrinkage=0.2


Tree=39
num_leaves=4
num_cat=0
split_feature=2 0 3
split_gain=1.65695 2.7258e-05 2.14275e-06
threshold=2.4500000000000006 6.0500000000000007 1.6500000000000001
decision_type=2 2 2
left_child=-1 -2 -3
right_child=1 2 -4
leaf_value=0.13843971191391127 -0.13736346411809217 -0.13622576002679557 -0.13567441893174337
leaf_weight=1.4838962852954867 1.0068443641066553 0.53117709420621373 0.60097396932542324
leaf_count=34 27 19 25
internal_value=0 -0.136606 -0.135933
internal_weight=0 2.139 1.13215
internal_count=105 71 44
is_linear=0
shrinkage=0.2


Tree=40
num_leaves=4
num_cat=0
split_feature=0 1 3
split_gain=0.328254 0.34393 0.117508
threshold=5.6500000000000012 2.7500000000000004 1.6500000000000001
decision_type=2 2 2
left_child=1 -1 -2
right_child=2 -3 -4
leaf_value=0.023616596719221436 0.053746627697066202 -0.13269670470698713 -0.0043113327267887119
leaf_weight=1.0713893938809635 3.5908138938248158 1.1866482216864822 2.2797918356955051
leaf_count=8 32 34 31
internal_value=0 -0.0585295 0.0312004
internal_weight=0 2.25804 5.87061
internal_count=105 42 63
is_linear=0
shrinkage=0.2


Tree=41
num_leaves=4
num_cat=0
split_feature=3 1 1
split_gain=1.18484 0.926637 0.221266
threshold=1.8500000000000003 2.6500000000000008 3.0500000000000003
decision_type=2 2 2
left_child=1 -1 -3
right_child=-2 2 -4
leaf_value=0.07940661555612101 0.14908820563636185 -0.059225222882261945 -0.15896136223649682
leaf_weight=1.8552753478288648 1.7546771205961702 2.8004610259085894 1.3040785454213617
leaf_count=14 24 31 36
internal_value=0 -0.0378929 -0.090913
internal_weight=0 5.95981 4.10454
internal_count=105 81 67
is_linear=0
shrinkage=0.2


Tree=42
num_leaves=4
num_cat=0
split_feature=3 0 0
split_gain=1.09773 0.0366567 1.13383e-05
threshold=0.50000000000000011 5.7500000000000009 6.1500000000000012
decision_type=2 2 2
left_child=-1 -2 -3
right_child=1 2 -4
leaf_value=0.13632270330054272 -0.074397384498944286 -0.13670561494795336 -0.13553747095062818
leaf_weight=1.0421576686203482 0.53657945990562428 0.55924367345869519 0.81926179490983486
leaf_count=33 14 19 39
internal_value=0 -0.118748 -0.136011
internal_weight=0 1.91508 1.37851
internal_count=105 72 58
is_linear=0
shrinkage=0.2


Tree=43
num_leaves=5
num_cat=0
split_feature=2 0 2 1
split_gain=0.329326 1.02073 0.403289 0.523013
threshold=5.0500000000000007 6.0500000000000007 4.4500000000000011 2.9500000000000006
decision_type=2 2 2 2
left_child=1 2 3 -1
right_child=-2 -3 -4 -5
leaf_value=0.13444082326921283 -0.062524420136399722 0.16356880441459182 -0.088073119050360082 -0.07484492124040347
leaf_weight=1.0645071435719731 2.0532249175012112 1.6412991210818288 1.9706491380929945 0.86635402031242836
leaf_count=13 31 18 8 35
internal_value=0 0.0312432 -0.0244239 0.0405368
internal_weight=0 5.54281 3.90151 1.93086
internal_count=105 74 56 48
is_linear=0
shrinkage=0.2


Tree=44
num_leaves=5
num_cat=0
split_feature=2 1 2 0
split_gain=1.12964 0.690239 0.180136 9.47857e-05
threshold=5.1500000000000012 2.5500000000000003 4.7500000000000009 5.7500000000000009
decision_type=2 2 2 2
left_child=1 -1 3 -3
right_child=-2 2 -4 -5
leaf_value=0.07030676471523821 0.15295544207457745 -0.1352131531112227 -0.049046729180285048 -0.13846710811295335
leaf_weight=1.6834656707942484 1.6158462427556513 0.58914680406451247 2.4239745996892452 0.91298734489828348
leaf_count=12 23 37 13 20
internal_value=0 -0.0368313 -0.0827708 -0.137191
internal_weight=0 5.60957 3.92611 1.50213
internal_count=105 82 70 57
is_linear=0
shrinkage=0.2


Tree=45
num_leaves=3
num_cat=0
split_feature=2 2
split_gain=1.08931 3.90715e-06
threshold=2.4500000000000006 5.0500000000000007
decision_type=2 2
left_child=-1 -2
right_child=1 -3
leaf_value=0.13699261108578561 -0.13608484767852438 -0.13541599637909316
leaf_weight=0.9598357938230041 0.9467406654730437 0.55364735517650843
leaf_count=34 40 31
internal_value=0 -0.135838
internal_weight=0 1.50039
internal_count=105 71
is_linear=0
shrinkage=0.2


Tree=46
num_leaves=5
num_cat=0
split_feature=1 0 0 3
split_gain=0.266419 0.383946 0.386448 0.0671091
threshold=2.6500000000000008 5.8500000000000005 6.1500000000000012 1.1500000000000001
decision_type=2 2 2 2
left_child=-1 3 -3 -2
right_child=1 2 -4 -5
leaf_value=-0.053117961837607176 -0.10624196960082377 0.14014347506431371 0.0070471790305919046 -0.014967257476082619
leaf_weight=2.1161842234432697 0.65633232519030549 1.5678076148033144 1.9678923059254882 0.63293594494462013
leaf_count=16 34 11 34 10
internal_value=0 0.0319966 0.066065 -0.0614328
internal_weight=0 4.82497 3.5357 1.28927
internal_count=105 89 45 44
is_linear=0
shrinkage=0.2


Tree=47
num_leaves=4
num_cat=0
split_feature=2 1 1
split_gain=0.888301 0.603254 0.175127
threshold=5.1500000000000012 2.5500000000000003 3.0500000000000003
decision_type=2 2 2
left_child=1 -1 -3
right_child=-2 2 -4
leaf_value=0.067923581344170883 0.14983359220476908 -0.050424642890746885 -0.14804092298265972
leaf_weight=1.6458411440253256 1.3421039246022699 2.5891265729442243 1.026634383946657
leaf_count=12 23 33 37
internal_value=0 -0.0324518 -0.0781411
internal_weight=0 5.2616 3.61576
internal_count=105 82 70
is_linear=0
shrinkage=0.2


Tree=48
num_leaves=3
num_cat=0
split_feature=2 2
split_gain=0.880818 2.62151e-06
threshold=2.4500000000000006 5.0500000000000007
decision_type=2 2
left_child=-1 -2
right_child=1 -3
leaf_value=0.13624387969897842 -0.13573283578108197 -0.13513518247003323
leaf_weight=0.76001618802547488 0.82577855512499787 0.45550697017461061
leaf_count=34 40 31
internal_value=0 -0.13552
internal_weight=0 1.28129
internal_count=105 71
is_linear=0
shrinkage=0.2


Tree=49
num_leaves=5
num_cat=0
split_feature=3 1 0 3
split_gain=0.264648 0.199679 0.044696 0.499795
threshold=1.6500000000000001 2.7500000000000004 6.1500000000000012 1.1500000000000001
decision_type=2 2 2 2
left_child=1 -1 3 -3
right_child=-2 2 -4 -5
leaf_value=0.082213765933466798 -0.04448946014327583 -0.13561526190031054 -0.037739766605756779 0.1388740417626865
leaf_weight=2.0087617933750153 2.5836108010262251 0.46386613603681348 0.96764200553297985 0.61997455731034279
leaf_count=15 33 33 12 12
internal_value=0 0.0373919 -0.00649654 0.0213971
internal_weight=0 4.06024 2.05148 1.08384
internal_count=105 72 57 45
is_linear=0
shrinkage=0.2


Tree=50
num_leaves=4
num_cat=0
split_feature=2 3 0
split_gain=0.812093 0.0968817 0.000125878
threshold=4.4500000000000011 1.6500000000000001 5.0500000000000007
decision_type=2 2 2
left_child=2 -2 -1
right_child=1 -3 -4
leaf_value=-0.14135193975542767 0.0084456309663952216 0.064406614352912853 -0.1372630891669836
leaf_weight=0.50290805380791404 2.1373083088546991 2.9391938671469688 0.75075952988117933
leaf_count=21 18 33 33
internal_value=0 0.0408459 -0.138903
internal_weight=0 5.0765 1.25367
internal_count=105 51 54
is_linear=0
shrinkage=0.2


Tree=51
num_leaves=4
num_cat=0
split_feature=3 1 0
split_gain=0.561926 0.023289 2.31251e-06
threshold=0.50000000000000011 3.0500000000000003 6.0500000000000007
decision_type=2 2 2
left_child=-1 2 -2
right_child=1 -3 -4
leaf_value=0.13484326604544561 -0.13544599424822265 -0.071873383282968384 -0.13475917771411991
leaf_weight=0.51253470964729797 0.49236845690757014 0.32477782852947712 0.32587986113503575
leaf_count=33 25 19 28
internal_value=0 -0.117187 -0.135172
internal_weight=0 1.14303 0.818248
internal_count=105 72 53
is_linear=0
shrinkage=0.2


Tree=52
num_leaves=5
num_cat=0
split_feature=1 2 3 2
split_gain=0.252708 0.237045 0.0398887 0.354502
threshold=2.6500000000000008 5.0500000000000007 1.4500000000000002 3.9500000000000006
decision_type=2 2 2 2
left_child=-1 2 3 -2
right_child=1 -3 -4 -5
leaf_value=-0.053943502492597356 -0.10986047467518345 -0.030424062175761869 0.086970881108954026 0.13696809845309865
leaf_weight=1.9356726519763467 0.39329028315842185 1.4961272738873956 1.7336264066398142 0.57018478587269783
leaf_count=16 34 28 11 16
internal_value=0 0.0334222 0.0688387 0.0362127
internal_weight=0 4.19323 2.6971 0.963475
internal_count=105 89 61 50
is_linear=0
shrinkage=0.2


Tree=53
num_leaves=5
num_cat=0
split_feature=3 0 0 0
split_gain=0.405252 0.140639 0.00863532 5.56219e-05
threshold=1.4500000000000002 6.0500000000000007 6.1500000000000012 5.0500000000000007
decision_type=2 2 2 2
left_child=1 3 -2 -1
right_child=2 -3 -4 -5
leaf_value=-0.13991699823910139 0.04199926855302049 -0.0030801974568671784 0.02451489674824665 -0.13673018575815937
leaf_weight=0.40564375277608611 2.3687637187540531 0.47362197376787663 2.1604024861007929 0.47631963761523366
leaf_count=21 13 12 32 27
internal_value=0 -0.0909884 0.0336593 -0.138196
internal_weight=0 1.35559 4.52917 0.881963
internal_count=105 60 45 48
is_linear=0
shrinkage=0.2


Tree=54
num_leaves=4
num_cat=0
split_feature=2 0 2
split_gain=0.568511 4.33281e-06 4.35349e-07
threshold=2.4500000000000006 6.0500000000000007 5.1500000000000012
decision_type=2 2 2
left_child=-1 -2 -3
right_child=1 2 -4
leaf_value=0.13540639626482881 -0.13534397714733573 -0.13465227894055015 -0.13424985241464749
leaf_weight=0.47120781242847443 0.48084973450750113 0.24138435861095786 0.19390833145007491
leaf_count=34 27 21 23
internal_value=0 -0.13493 -0.134473
internal_weight=0 0.916142 0.435293
internal_count=105 71 44
is_linear=0
shrinkage=0.2


Tree=55
num_leaves=4
num_cat=0
split_feature=1 2 1
split_gain=0.229995 0.183784 0.0556821
threshold=2.6500000000000008 5.0500000000000007 3.0500000000000003
decision_type=2 2 2
left_child=-1 2 -2
right_child=1 -3 -4
leaf_value=-0.051987825196642246 0.043668762060800781 -0.023797324766072062 0.10590217159326515
leaf_weight=1.8709401572123168 1.6125062452629215 1.4397441949695347 0.89386538788676251
leaf_count=16 26 28 35
internal_value=0 0.0331507 0.0658635
internal_weight=0 3.94612 2.50637
internal_count=105 89 61
is_linear=0
shrinkage=0.2


Tree=56
num_leaves=6
num_cat=0
split_feature=3 1 0 1 0
split_gain=0.321274 0.15145 0.134633 0.000143952 6.62144e-06
threshold=1.4500000000000002 2.8500000000000001 6.0500000000000007 2.5500000000000003 5.6500000000000012
decision_type=2 2 2 2 2
left_child=2 -2 3 -1 -5
right_child=1 -3 -4 4 -6
leaf_value=-0.14035165518832773 0.066746428660980614 -0.007339532893798538 0.00099536444962352319 -0.13390820763227304 -0.13569951710075953
leaf_weight=0.43093615584075429 2.2030466925352812 2.2118211947381496 0.44039114937186241 0.16547620901837945 0.16469083819538355
leaf_count=7 16 29 12 33 8
internal_value=0 0.0296298 -0.0870178 -0.137944 -0.134802
internal_weight=0 4.41487 1.20149 0.761103 0.330167
internal_count=105 45 60 48 41
is_linear=0
shrinkage=0.2


Tree=57
num_leaves=4
num_cat=0
split_feature=2 0 2
split_gain=0.499225 2.79077e-06 2.2548e-07
threshold=2.4500000000000006 6.0500000000000007 5.1500000000000012
decision_type=2 2 2
left_child=-1 -2 -3
right_child=1 2 -4
leaf_value=0.13525210104764437 -0.135063949527813 -0.13445211308699281 -0.1341396042465253
leaf_weight=0.41998714674264193 0.41576239699497819 0.20336396060883999 0.16917867911979556
leaf_count=34 27 21 23
internal_value=0 -0.134708 -0.13431
internal_weight=0 0.788305 0.372543
internal_count=105 71 44
is_linear=0
shrinkage=0.2


Tree=58
num_leaves=5
num_cat=0
split_feature=1 0 0 3
split_gain=0.190134 0.282587 0.189248 0.000736708
threshold=2.6500000000000008 5.8500000000000005 6.1500000000000012 1.2500000000000002
decision_type=2 2 2 2
left_child=-1 3 -3 -2
right_child=1 2 -4 -5
leaf_value=-0.047735953951578175 -0.069821519346010399 0.11352109571608573 0.012988234199083399 -0.082138597097314733
leaf_weight=1.8026211094111202 0.37065926054492626 1.377244593575597 1.6419181358069179 0.40810356289148331
leaf_count=16 36 11 34 8
internal_value=0 0.0311409 0.0588481 -0.0762762
internal_weight=0 3.79793 3.01916 0.778763
internal_count=105 89 45 44
is_linear=0
shrinkage=0.2


Tree=59
num_leaves=4
num_cat=0
split_feature=2 0 1
split_gain=0.274814 0.198084 1.21326e-05
threshold=4.7500000000000009 5.0500000000000007 2.8500000000000001
decision_type=2 2 2
left_child=1 -1 -3
right_child=-2 2 -4
leaf_value=0.014500885649240359 0.030273653842852334 -0.13722747257445456 -0.13568610873867856
leaf_weight=0.60527225513942517 3.9600022379308939 0.40760929137468338 0.4094741428270936
leaf_count=22 39 12 32
internal_value=0 -0.0722169 -0.136455
internal_weight=0 1.42236 0.817083
internal_count=105 66 44
is_linear=0
shrinkage=0.2


Tree=60
num_leaves=5
num_cat=0
split_feature=3 3 0 3
split_gain=0.319993 0.0211008 1.50661e-06 1.14651e-07
threshold=0.50000000000000011 1.2500000000000002 6.0500000000000007 1.6500000000000001
decision_type=2 2 2 2
left_child=-1 -2 -3 -4
right_child=1 2 3 -5
leaf_value=0.13417453050453895 -0.05894970061221734 -0.13485670125756891 -0.13430183761885425 -0.13405988206507533
leaf_weight=0.29025900829583406 0.20456857653334737 0.22179671004414558 0.15032733138650656 0.16358065558597445
leaf_count=33 12 17 18 25
internal_value=0 -0.113592 -0.134458 -0.134176
internal_weight=0 0.740273 0.535705 0.313908
internal_count=105 72 60 43
is_linear=0
shrinkage=0.2


Tree=61
num_leaves=5
num_cat=0
split_feature=2 1 0 1
split_gain=0.18322 0.152086 0.165273 0.121918
threshold=4.4500000000000011 2.8500000000000001 5.5500000000000007 2.8500000000000001
decision_type=2 2 2 2
left_child=1 -1 -3 -2
right_child=3 2 -4 -5
leaf_value=0.13674217835152358 -0.045612771082541193 -0.13474886131594185 0.12169255626052258 0.021789814987490202
leaf_weight=0.67724440805613972 2.2394695021212101 0.22106983093544841 0.18436423316597939 2.061600660905242
leaf_count=13 19 32 9 32
internal_value=0 0.0787443 -0.0181365 -0.0133052
internal_weight=0 1.08268 0.405434 4.30107
internal_count=105 54 41 51
is_linear=0
shrinkage=0.2


Tree=62
num_leaves=6
num_cat=0
split_feature=3 2 1 3 1
split_gain=0.240545 0.64712 0.000890268 2.21344e-05 1.50649e-06
threshold=1.6500000000000001 4.9500000000000011 2.5500000000000003 1.4500000000000002 2.9500000000000006
decision_type=2 2 2 2 2
left_child=1 2 -1 4 -4
right_child=-2 -3 3 -5 -6
leaf_value=-0.14612531406184831 0.047937094250954521 0.055468984251704073 -0.13503511569677371 -0.13707161086543776 -0.13424891951864951
leaf_weight=0.64611531887203477 2.5019560679793358 1.4071615189313886 0.20080377627164125 0.24736801721155643 0.18948776554316282
leaf_count=9 33 5 13 7 38
internal_value=0 -0.0382102 -0.140893 -0.135592 -0.134653
internal_weight=0 2.69094 1.28377 0.63766 0.390292
internal_count=105 72 67 58 51
is_linear=0
shrinkage=0.2


Tree=63
num_leaves=4
num_cat=0
split_feature=2 1 3
split_gain=0.340413 2.97459e-07 1.59826e-07
threshold=2.4500000000000006 2.6500000000000008 1.5500000000000003
decision_type=2 2 2
left_child=-1 -2 -3
right_child=1 2 -4
leaf_value=0.13483897125362912 -0.13455831325772269 -0.13408028766218932 -0.13433798645431236
leaf_weight=0.27952555008232594 0.16491341008804739 0.15524134901352227 0.25341806607320905
leaf_count=34 15 23 33
internal_value=0 -0.134332 -0.13424
internal_weight=0 0.573573 0.408659
internal_count=105 71 56
is_linear=0
shrinkage=0.2


Tree=64
num_leaves=4
num_cat=0
split_feature=1 2 0
split_gain=0.201239 0.104975 0.860274
threshold=2.6500000000000008 5.0500000000000007 6.0500000000000007
decision_type=2 2 2
left_child=-1 2 -2
right_child=1 -3 -4
leaf_value=-0.053274514713440094 -0.029548343608103197 -0.01059905751154339 0.24540456052823778
leaf_weight=1.5902364607900379 1.3774785380810506 1.3417241014540193 0.67981744557619084
leaf_count=16 46 28 15
internal_value=0 0.0329233 0.0613077
internal_weight=0 3.39902 2.0573
internal_count=105 89 61
is_linear=0
shrinkage=0.2


Tree=65
num_leaves=5
num_cat=0
split_feature=3 2 2 0
split_gain=0.183455 0.508726 0.000647467 3.26414e-05
threshold=1.6500000000000001 4.9500000000000011 4.5500000000000007 5.0500000000000007
decision_type=2 2 2 2
left_child=1 2 3 -1
right_child=-2 -3 -4 -5
leaf_value=-0.13835310912837132 0.041528853659846383 0.044689607467436637 -0.14684955721533838 -0.13548071790546254
leaf_weight=0.24900572770275198 2.4132228046655655 1.3568949848413465 0.37734625767916441 0.43418437871150672
leaf_count=21 33 5 9 37
internal_value=0 -0.0364223 -0.1402 -0.136528
internal_weight=0 2.41743 1.06054 0.68319
internal_count=105 72 67 58
is_linear=0
shrinkage=0.2


Tree=66
num_leaves=4
num_cat=0
split_feature=3 1 0
split_gain=0.207114 0.0173281 3.70801e-07
threshold=0.50000000000000011 3.0500000000000003 6.0500000000000007
decision_type=2 2 2
left_child=-1 2 -2
right_child=1 -3 -4
leaf_value=0.1338845219940302 -0.13437958934776903 -0.054371774248265427 -0.13396736023521669
leaf_weight=0.18586829118430614 0.2435648743994534 0.15227942354977131 0.13602749025449157
leaf_count=33 25 19 28
internal_value=0 -0.111367 -0.134232
internal_weight=0 0.531872 0.379592
internal_count=105 72 53
is_linear=0
shrinkage=0.2


Tree=67
num_leaves=4
num_cat=0
split_feature=3 2 2
split_gain=0.11266 0.276643 0.103059
threshold=1.6500000000000001 4.9500000000000011 3.4000000000000004
decision_type=2 2 2
left_child=1 2 -1
right_child=-2 -3 -4
leaf_value=0.013161472946980363 -0.027491205415417708 -0.03029424094863005 0.14055481013112947
leaf_weight=0.36103890789672755 2.2055935747921467 1.2829081565141676 0.85686198994517326
leaf_count=37 33 5 30
internal_value=0 0.0345181 0.10279
internal_weight=0 2.50081 1.2179
internal_count=105 72 67
is_linear=0
shrinkage=0.2


Tree=68
num_leaves=5
num_cat=0
split_feature=1 2 0 0
split_gain=0.231192 0.144617 0.0374023 0.301419
threshold=2.6500000000000008 5.0500000000000007 5.9500000000000011 5.8500000000000005
decision_type=2 2 2 2
left_child=-1 2 3 -2
right_child=1 -3 -4 -5
leaf_value=0.068235745135381429 0.035263376755645975 0.018284977130323472 -0.04256004335715554 -0.22373611371742119
leaf_weight=1.4388835639692841 0.33765913371462397 1.4270824678242204 0.97614679764956236 0.38429252058267593
leaf_count=16 41 28 18 2
internal_value=0 -0.028646 -0.0680867 -0.102601
internal_weight=0 3.12518 1.6981 0.721952
internal_count=105 89 61 43
is_linear=0
shrinkage=0.2


Tree=69
num_leaves=4
num_cat=0
split_feature=2 0 2
split_gain=0.254544 5.96841e-07 3.34533e-08
threshold=2.4500000000000006 6.0500000000000007 5.1500000000000012
decision_type=2 2 2
left_child=-1 -2 -3
right_child=1 2 -4
leaf_value=0.13473040924337951 -0.13432738688596624 -0.13392640404377301 -0.13375550413794843
leaf_weight=0.21397791197523475 0.22894513770006597 0.094080434879288077 0.089307021582499146
leaf_count=34 27 21 23
internal_value=0 -0.134112 -0.133843
internal_weight=0 0.412333 0.183387
internal_count=105 71 44
is_linear=0
shrinkage=0.2


Tree=70
num_leaves=4
num_cat=0
split_feature=3 0 3
split_gain=0.11768 0.236909 0.022718
threshold=1.6500000000000001 6.0500000000000007 1.1500000000000001
decision_type=2 2 2
left_child=1 2 -1
right_child=-2 -3 -4
leaf_value=0.056583774654703302 -0.029099408370398729 -0.039098292660856487 0.10987025435322378
leaf_weight=0.51396836596541129 2.138865283690393 0.98217357229441393 0.84815546497702599
leaf_count=41 33 19 12
internal_value=0 0.0357753 0.0897637
internal_weight=0 2.3443 1.36212
internal_count=105 72 53
is_linear=0
shrinkage=0.2


Tree=71
num_leaves=4
num_cat=0
split_feature=1 3 0
split_gain=0.19818 0.232803 1.30262
threshold=2.6500000000000008 1.6500000000000001 6.1500000000000012
decision_type=2 2 2
left_child=-1 2 -2
right_child=1 -3 -4
leaf_value=0.063801074690370121 -0.32807583978676352 0.014916435991451649 0.10659358065345735
leaf_weight=1.3799682846292851 0.52717923512682341 1.8844701405614612 0.57829795777797699
leaf_count=16 48 29 12
internal_value=0 -0.0278274 -0.100691
internal_weight=0 2.98995 1.10548
internal_count=105 89 60
is_linear=0
shrinkage=0.2


Tree=72
num_leaves=4
num_cat=0
split_feature=2 0 2
split_gain=0.216958 4.22738e-07 2.12191e-08
threshold=2.4500000000000006 6.0500000000000007 5.1500000000000012
decision_type=2 2 2
left_child=-1 -2 -3
right_child=1 2 -4
leaf_value=0.13459898219025887 -0.13420303484112658 -0.13383281646958409 -0.133686459668269
leaf_weight=0.1826386796310544 0.19354378012940288 0.082750431611202657 0.076030689757317305
leaf_count=34 27 21 23
internal_value=0 -0.134005 -0.133763
internal_weight=0 0.352325 0.158781
internal_count=105 71 44
is_linear=0
shrinkage=0.2


Tree=73
num_leaves=5
num_cat=0
split_feature=0 3 2 2
split_gain=0.135951 0.360276 0.155766 0.0780507
threshold=6.5500000000000007 1.6500000000000001 4.9500000000000011 3.4000000000000004
decision_type=2 2 2 2
left_child=1 2 3 -1
right_child=-2 -3 -4 -5
leaf_value=0.022585525351382526 0.075828245194939317 -0.087649289374157557 -0.010548429620395275 0.14211420306968631
leaf_weight=0.33585527865216214 0.86149052344262589 1.4863294363021848 1.0708294361829755 0.62548720464110374
leaf_count=37 22 17 4 25
internal_value=0 -0.0128166 0.041916 0.100356
internal_weight=0 3.5185 2.03217 0.961342
internal_count=105 83 66 62
is_linear=0
shrinkage=0.2


Tree=74
num_leaves=4
num_cat=0
split_feature=1 3 0
split_gain=0.170619 0.157604 0.941294
threshold=2.6500000000000008 1.6500000000000001 6.1500000000000012
decision_type=2 2 2
left_child=-1 2 -2
right_child=1 -3 -4
leaf_value=0.058927782647778593 -0.28744075653314555 0.0083698710619234604 0.090992776811250231
leaf_weight=1.3629838693886993 0.50024857139214896 1.8460486447438595 0.55414398387074471
leaf_count=16 48 29 12
internal_value=0 -0.026864 -0.0885522
internal_weight=0 2.90044 1.05439
internal_count=105 89 60
is_linear=0
shrinkage=0.2


Tree=75
num_leaves=4
num_cat=0
split_feature=2 0 2
split_gain=0.183767 3.41019e-07 1.18091e-08
threshold=2.4500000000000006 6.0500000000000007 5.1500000000000012
decision_type=2 2 2
left_child=-1 -2 -3
right_child=1 2 -4
leaf_value=0.13445585899487481 -0.13412307910998503 -0.13375002058439819 -0.1336303187076669
leaf_weight=0.15583448484539986 0.16377690364606678 0.066834012744948268 0.065057000145316124
leaf_count=34 27 21 23
internal_value=0 -0.13393 -0.133691
internal_weight=0 0.295668 0.131891
internal_count=105 71 44
is_linear=0
shrinkage=0.2


Tree=76
num_leaves=7
num_cat=0
split_feature=1 0 3 3 3 1
split_gain=0.129848 0.0626785 0.301322 0.693223 0.0137738 0.0730836
threshold=2.6500000000000008 6.5500000000000007 1.6500000000000001 1.5500000000000003 1.4500000000000002 3.0500000000000003
decision_type=2 2 2 2 2 2
left_child=-1 2 3 4 5 -2
right_child=1 -3 -4 -5 -6 -7
leaf_value=-0.047253089957280829 0.10051134742181694 0.073740128547929482 -0.058817478492511392 0.29399847736083268 -0.088817489733130861 -0.13453745242632617
leaf_weight=1.3299773517064748 0.10180385108105916 0.85390578489750613 1.1439702268689869 0.39538048580288887 0.2882270198315382 0.1101799295283854
leaf_count=16 18 20 15 3 5 28
internal_value=0 0.0282472 0.00920067 0.0960826 -0.0603555 -0.0216568
internal_weight=0 2.89347 2.03956 0.895591 0.500211 0.211984
internal_count=105 89 69 54 51 46
is_linear=0
shrinkage=0.2


Tree=77
num_leaves=6
num_cat=0
split_feature=0 3 2 2 0
split_gain=0.092644 0.307892 0.266455 0.000582385 3.54885e-05
threshold=6.5500000000000007 1.6500000000000001 4.9500000000000011 4.5500000000000007 5.0500000000000007
decision_type=2 2 2 2 2
left_child=1 2 3 4 -1
right_child=-2 -3 -4 -5 -6
leaf_value=-0.13883576795449043 -0.056454826521867701 0.083012337205844888 0.02013601346564059 -0.14939806684591914 -0.13520176769579867
leaf_weight=0.20343875273829359 0.90838214894756664 1.4769555777311323 1.0767455250024793 0.22882135212421417 0.22791989042889327
leaf_count=21 22 17 4 6 35
internal_value=0 0.0158816 -0.0412015 -0.141242 -0.136916
internal_weight=0 3.21388 1.73693 0.66018 0.431359
internal_count=105 83 66 62 56
is_linear=0
shrinkage=0.2


Tree=78
num_leaves=4
num_cat=0
split_feature=2 0 2
split_gain=0.14832 2.09033e-07 8.02099e-09
threshold=2.4500000000000006 6.0500000000000007 5.1500000000000012
decision_type=2 2 2
left_child=-1 -2 -3
right_child=1 2 -4
leaf_value=0.1341903859736843 -0.13401142460881607 -0.13369969821501881 -0.13359372315516735
leaf_weight=0.12245064764283597 0.13933502975851297 0.056898930401075631 0.057375265867449343
leaf_count=34 27 21 23
internal_value=0 -0.133847 -0.133646
internal_weight=0 0.253609 0.114274
internal_count=105 71 44
is_linear=0
shrinkage=0.2


Tree=79
num_leaves=3
num_cat=0
split_feature=1 0
split_gain=0.133482 0.113672
threshold=3.0500000000000003 6.1500000000000012
decision_type=2 2
left_child=1 -1
right_child=-2 -3
leaf_value=-0.04303179603633011 0.079810660590230564 0.032901798716066154
leaf_weight=2.0286077009513979 0.75194170884788025 1.2900664797052739
leaf_count=36 46 23
internal_value=0 -0.0135142
internal_weight=0 3.31867
internal_count=105 59
is_linear=0
shrinkage=0.2


Tree=80
num_leaves=6
num_cat=0
split_feature=0 0 2 0 2
split_gain=0.140079 0.306717 0.347377 0.0808003 7.10702e-06
threshold=5.9500000000000011 5.8500000000000005 4.4500000000000011 6.1500000000000012 3.4000000000000004
decision_type=2 2 2 2 2
left_child=1 2 4 -2 -1
right_child=3 -3 -4 -5 -6
leaf_value=-0.1380160160133905 0.062467100527545609 -0.19378155992947121 0.14610049652769191 -0.0053145852555072847 -0.13607526948772525
leaf_weight=0.17693475034320749 1.242270303424448 0.42285027634352446 0.39451915817335248 1.621957665774971 0.13162369944620878
leaf_count=37 10 3 6 39 10
internal_value=0 -0.0591794 0.0217741 0.0240836 -0.137188
internal_weight=0 1.12593 0.703078 2.86423 0.308558
internal_count=105 56 53 49 47
is_linear=0
shrinkage=0.2


Tree=81
num_leaves=3
num_cat=0
split_feature=2 2
split_gain=0.13231 3.98234e-08
threshold=2.4500000000000006 4.9500000000000011
decision_type=2 2
left_child=-1 -2
right_child=1 -3
leaf_value=0.13413816148867647 -0.13386371774493686 -0.13369321784969773
leaf_weight=0.11035011126659811 0.12387965421658009 0.098259934224188328
leaf_count=34 37 34
internal_value=0 -0.133788
internal_weight=0 0.22214
internal_count=105 71
is_linear=0
shrinkage=0.2


Tree=82
num_leaves=6
num_cat=0
split_feature=0 0 3 0 0
split_gain=0.0838792 0.244126 0.226663 0.0490548 0.000691416
threshold=5.9500000000000011 5.8500000000000005 1.6500000000000001 6.1500000000000012 5.0500000000000007
decision_type=2 2 2 2 2
left_child=1 2 4 -2 -1
right_child=3 -3 -4 -5 -6
leaf_value=0.069250245357494924 -0.045556864454101238 0.17211999108758796 -0.14745298482874045 0.0076756685867523699 0.085624159855106019
leaf_weight=0.23824247857555769 1.2199518254492434 0.41179443337023258 0.31806679535657167 1.6014165035448966 0.18192905816249549
leaf_count=21 10 3 5 39 27
internal_value=0 0.0487412 -0.0200803 -0.0153419 0.0763399
internal_weight=0 1.15003 0.738238 2.82137 0.420172
internal_count=105 56 53 49 48
is_linear=0
shrinkage=0.2


Tree=83
num_leaves=4
num_cat=0
split_feature=1 0 1
split_gain=0.12008 0.0652254 0.205036
threshold=2.6500000000000008 6.1500000000000012 2.9500000000000006
decision_type=2 2 2
left_child=-1 2 -2
right_child=1 -3 -4
leaf_value=0.054885703483625786 -0.14203754369664143 0.0090980940491873687 0.013367148801413662
leaf_weight=1.1471595733892175 0.59005755971884377 1.352163676638156 0.80004276751424186
leaf_count=16 15 34 40
internal_value=0 -0.0221765 -0.0525977
internal_weight=0 2.74226 1.3901
internal_count=105 89 55
is_linear=0
shrinkage=0.2


Tree=84
num_leaves=4
num_cat=0
split_feature=3 0 0
split_gain=0.0876248 6.99041e-08 1.30769e-10
threshold=1.0500000000000003 6.0500000000000007 6.5500000000000007
decision_type=2 2 2
left_child=-1 -2 -3
right_child=1 2 -4
leaf_value=0.087284350737792671 -0.13382628024613638 -0.13357646483351648 -0.1335608446790226
leaf_weight=0.12511646584607661 0.082571306731551886 0.041989411110989749 0.043802692205645144
leaf_count=38 23 22 22
internal_value=0 -0.133695 -0.133568
internal_weight=0 0.168363 0.0857921
internal_count=105 67 44
is_linear=0
shrinkage=0.2


Tree=85
num_leaves=5
num_cat=0
split_feature=2 0 0 0
split_gain=0.0831336 0.669352 0.699259 0.272182
threshold=5.0500000000000007 6.0500000000000007 5.9500000000000011 5.6500000000000012
decision_type=2 2 2 2
left_child=1 2 3 -1
right_child=-2 -3 -4 -5
leaf_value=-0.022067941752346686 -0.036066312451610225 0.17835710115193115 -0.19773210955043111 0.19152580405549857
leaf_weight=0.60398999671451814 1.4048085724934933 0.77931135962717224 0.70602051122114062 0.39451439958065748
leaf_count=42 31 18 4 10
internal_value=0 0.0248099 -0.0453922 0.0623241
internal_weight=0 2.48384 1.70452 0.998504
internal_count=105 74 56 52
is_linear=0
shrinkage=0.2


Tree=86
num_leaves=4
num_cat=0
split_feature=0 1 1
split_gain=0.0942503 0.163456 0.101838
threshold=5.9500000000000011 2.8500000000000001 2.7500000000000004
decision_type=2 2 2
left_child=1 -1 -2
right_child=2 -3 -4
leaf_value=0.016818365931641478 -0.028623080213922198 -0.14785075870993308 0.04916256756490682
leaf_weight=0.56838092999532852 1.1056184824556115 0.41877827962161973 1.721530817565508
leaf_count=17 9 39 40
internal_value=0 -0.0530385 0.0187428
internal_weight=0 0.987159 2.82715
internal_count=105 56 49
is_linear=0
shrinkage=0.2


Tree=87
num_leaves=4
num_cat=0
split_feature=3 0 0
split_gain=0.0722975 4.79483e-08 1.56517e-10
threshold=1.0500000000000003 6.0500000000000007 6.5500000000000007
decision_type=2 2 2
left_child=-1 -2 -3
right_child=1 2 -4
leaf_value=0.079238087557523443 -0.1337619064549424 -0.13353880373140645 -0.13351986037491601
leaf_weight=0.11618147394619882 0.071727690054103732 0.034020060207694769 0.035812025482300669
leaf_count=38 23 22 22
internal_value=0 -0.133647 -0.133529
internal_weight=0 0.14156 0.0698321
internal_count=105 67 44
is_linear=0
shrinkage=0.2


Tree=88
num_leaves=5
num_cat=0
split_feature=1 1 0 1
split_gain=0.0710345 0.042268 0.0899774 0.376309
threshold=2.6500000000000008 2.8500000000000001 6.5500000000000007 3.1500000000000008
decision_type=2 2 2 2
left_child=-1 -2 3 -3
right_child=1 2 -4 -5
leaf_value=-0.040164930099234969 0.058296508698096466 -0.15382259630205389 0.051266251120572537 0.097703942484695522
leaf_weight=1.089010365540162 0.81854396755807135 0.51853919134009607 0.839662148617208 0.43964872427750379
leaf_count=16 16 22 18 33
internal_value=0 0.0206226 0.00347009 -0.0384138
internal_weight=0 2.61639 1.79785 0.958188
internal_count=105 89 73 55
is_linear=0
shrinkage=0.2


Tree=89
num_leaves=5
num_cat=0
split_feature=2 0 0 0
split_gain=0.0756871 0.540167 0.572232 0.168277
threshold=5.0500000000000007 6.0500000000000007 5.9500000000000011 5.6500000000000012
decision_type=2 2 2 2
left_child=1 2 3 -1
right_child=-2 -3 -4 -5
leaf_value=0.0068662582169719492 0.036174864597182922 -0.16400255353503115 0.18384962203427341 -0.17773725084741676
leaf_weight=0.50757570008863762 1.4071406684815881 0.73096932284533966 0.66607971861958504 0.32334136472491082
leaf_count=42 31 18 4 10
internal_value=0 -0.0230735 0.0457408 -0.06497
internal_weight=0 2.22797 1.497 0.830917
internal_count=105 74 56 52
is_linear=0
shrinkage=0.2


Tree=90
num_leaves=4
num_cat=0
split_feature=2 1 2
split_gain=0.10043 4.42652e-08 1.8035e-09
threshold=2.4500000000000006 2.5500000000000003 5.0500000000000007
decision_type=2 2 2
left_child=-1 -2 -3
right_child=1 2 -4
leaf_value=0.13402758295033598 -0.1338361899013534 -0.13362754431411081 -0.13357456110454774
leaf_weight=0.08996650343760848 0.045600525685586035 0.048637465020874515 0.054486506327521056
leaf_count=34 12 29 30
internal_value=0 -0.133672 -0.1336
internal_weight=0 0.148724 0.103124
internal_count=105 71 59
is_linear=0
shrinkage=0.2


Tree=91
num_leaves=4
num_cat=0
split_feature=1 0 1
split_gain=0.0903478 0.109638 0.275763
threshold=2.7500000000000004 6.5500000000000007 3.0500000000000003
decision_type=2 2 2
left_child=-1 2 -2
right_child=1 -3 -4
leaf_value=0.040313783828615952 -0.13103539040175119 0.030483203957960121 0.068284093114007044
leaf_weight=1.4679087314289065 0.80926749855279945 0.85752114048227657 0.42265873949509114
leaf_count=22 27 20 36
internal_value=0 -0.0244284 -0.0626513
internal_weight=0 2.08945 1.23193
internal_count=105 83 63
is_linear=0
shrinkage=0.2


Tree=92
num_leaves=3
num_cat=0
split_feature=1 2
split_gain=0.0774843 0.538896
threshold=2.7500000000000004 5.0500000000000007
decision_type=2 2
left_child=-1 -2
right_child=1 -3
leaf_value=-0.035555346035057736 -0.062474265166577961 0.14595785376703738
leaf_weight=1.4425740896258505 1.1819454324722758 0.85517554264515627
leaf_count=22 59 24
internal_value=0 0.0250247
internal_weight=0 2.03712
internal_count=105 83
is_linear=0
shrinkage=0.2


Tree=93
num_leaves=4
num_cat=0
split_feature=2 0 2
split_gain=0.0890217 4.82841e-08 6.74127e-10
threshold=2.4500000000000006 6.0500000000000007 5.1500000000000012
decision_type=2 2 2
left_child=-1 -2 -3
right_child=1 2 -4
leaf_value=0.13398753495867782 -0.13372113002257299 -0.13349074682319739 -0.13344382001598498
leaf_weight=0.081886462052352726 0.077600880584213883 0.02474414769676514 0.024241118284408003
leaf_count=34 27 21 23
internal_value=0 -0.133623 -0.133468
internal_weight=0 0.126586 0.0489853
internal_count=105 71 44
is_linear=0
shrinkage=0.2


Tree=94
num_leaves=3
num_cat=0
split_feature=1 2
split_gain=0.0802716 0.0596753
threshold=2.6500000000000008 5.0500000000000007
decision_type=2 2
left_child=-1 -2
right_child=1 -3
leaf_value=-0.044400969449418071 0.052514721659873698 -0.011270574510129083
leaf_weight=1.0512574175372722 1.2295810284558686 1.1221159528940914
leaf_count=16 61 28
internal_value=0 0.0220795
internal_weight=0 2.3517
internal_count=105 89
is_linear=0
shrinkage=0.2


Tree=95
num_leaves=5
num_cat=0
split_feature=3 2 2 0
split_gain=0.0671732 0.226777 8.89145e-05 2.19804e-05
threshold=1.6500000000000001 4.9500000000000011 4.5500000000000007 5.0500000000000007
decision_type=2 2 2 2
left_child=1 2 3 -1
right_child=-2 -3 -4 -5
leaf_value=-0.13814797676613041 0.027861306844883624 0.02226669977084484 -0.1419812553213094 -0.13491938084363927
leaf_weight=0.16144399023323819 1.7088999999687073 1.1015264615416525 0.17826684145256877 0.17662513273535296
leaf_count=21 33 5 9 37
internal_value=0 -0.0289991 -0.138367 -0.136461
internal_weight=0 1.61786 0.516336 0.338069
internal_count=105 72 67 58
is_linear=0
shrinkage=0.2


Tree=96
num_leaves=4
num_cat=0
split_feature=2 0 2
split_gain=0.0789329 3.42932e-08 4.24555e-10
threshold=2.4500000000000006 6.0500000000000007 5.1500000000000012
decision_type=2 2 2
left_child=-1 -2 -3
right_child=1 2 -4
leaf_value=0.13393471635142848 -0.13367870860807704 -0.13346821656983324 -0.13342786825199296
leaf_weight=0.073897728463634849 0.067731175280641764 0.021048043388873339 0.020680798159446567
leaf_count=34 27 21 23
internal_value=0 -0.133591 -0.133448
internal_weight=0 0.10946 0.0417288
internal_count=105 71 44
is_linear=0
shrinkage=0.2


Tree=97
num_leaves=7
num_cat=0
split_feature=1 3 1 3 1 1
split_gain=0.0807555 0.0554824 0.621205 0.0204549 0.0317687 0.0370727
threshold=2.6500000000000008 1.6500000000000001 2.7500000000000004 1.5500000000000003 2.8500000000000001 3.1500000000000008
decision_type=2 2 2 2 2 2
left_child=-1 2 -2 4 -4 -6
right_child=1 -3 3 -5 5 -7
leaf_value=-0.0462857694682502 0.25491022105347411 -0.0028069326676662923 -0.10698527440633326 -0.13600299884695721 0.11041598358017127 -0.090184739050948842
leaf_weight=0.98775063594803247 0.38045772351324592 1.3987212991341946 0.18881227623205632 0.18071623495779932 0.078931836178526282 0.069122037501074374
leaf_count=16 3 29 6 3 20 28
internal_value=0 0.0221007 0.0608949 -0.0817194 -0.0525982 0.0167614
internal_weight=0 2.29676 0.89804 0.517582 0.336866 0.148054
internal_count=105 89 60 57 54 48
is_linear=0
shrinkage=0.2


Tree=98
num_leaves=5
num_cat=0
split_feature=1 2 0 0
split_gain=0.0943522 0.0627379 0.390464 0.200194
threshold=2.6500000000000008 5.0500000000000007 6.0500000000000007 5.9500000000000011
decision_type=2 2 2 2
left_child=-1 2 3 -2
right_child=1 -3 -4 -5
leaf_value=0.05210651939935005 -0.060902637674840936 0.010711968028359692 -0.2061647810712342 0.15554096898607792
leaf_weight=0.96767922036815468 0.37812000721896788 1.1264956239610908 0.42828651983290911 0.31194973830133677
leaf_count=16 43 28 15 3
internal_value=0 -0.022602 -0.0561584 0.0369419
internal_weight=0 2.24485 1.11836 0.69007
internal_count=105 89 61 46
is_linear=0
shrinkage=0.2


Tree=99
num_leaves=5
num_cat=0
split_feature=2 0 0 2
split_gain=0.066217 3.22062e-08 6.05541e-09 3.6577e-10
threshold=2.4500000000000006 5.5500000000000007 6.0500000000000007 5.1500000000000012
decision_type=2 2 2 2
left_child=-1 -2 -3 -4
right_child=1 2 3 -5
leaf_value=0.13380968979732288 -0.13375912265994147 -0.13355256880089747 -0.1334549772485589 -0.13341486922724283
leaf_weight=0.060807930654846132 0.024284531362354755 0.03415808588033542 0.0185613171197474 0.017833496211096644
leaf_count=34 6 21 21 23
internal_value=0 -0.13356 -0.133492 -0.133435
internal_weight=0 0.0948374 0.0705529 0.0363948
internal_count=105 71 65 44
is_linear=0
shrinkage=0.2


Tree=100
num_leaves=4
num_cat=0
split_feature=1 0 1
split_gain=0.0636048 0.0833036 0.250283
threshold=2.7500000000000004 6.5500000000000007 3.1500000000000008
decision_type=2 2 2
left_child=-1 2 -2
right_child=1 -3 -4
leaf_value=0.033568046254009415 -0.12837356232976188 0.027749899833723904 0.081134083722399442
leaf_weight=1.3811819026013838 0.7004385956097392 0.73742323787882913 0.33821339497808367
leaf_count=22 30 20 33
internal_value=0 -0.0236554 -0.0601522
internal_weight=0 1.77608 1.03865
internal_count=105 83 63
is_linear=0
shrinkage=0.2


Tree=101
num_leaves=4
num_cat=0
split_feature=1 2 0
split_gain=0.0554948 0.385401 0.323507
threshold=2.7500000000000004 5.0500000000000007 6.0500000000000007
decision_type=2 2 2
left_child=-1 2 -2
right_child=1 -3 -4
leaf_value=-0.030142275981182378 0.034126249564329018 0.14200251110329548 -0.19416647030720671
leaf_weight=1.3627657140605154 0.66261099302937487 0.67424684017896641 0.39708350319415331
leaf_count=22 44 24 15
internal_value=0 0.0237937 -0.0514185
internal_weight=0 1.73394 1.05969
internal_count=105 83 59
is_linear=0
shrinkage=0.2


Tree=102
num_leaves=5
num_cat=0
split_feature=2 0 0 2
split_gain=0.059097 1.99417e-08 3.79855e-09 2.29523e-10
threshold=2.4500000000000006 5.5500000000000007 6.0500000000000007 5.1500000000000012
decision_type=2 2 2 2
left_child=-1 -2 -3 -4
right_child=1 2 3 -5
leaf_value=0.13379094881951012 -0.1336950785550671 -0.13351803969271331 -0.13343374217351239 -0.13339870150615077
leaf_weight=0.056065419339574873 0.020748879527673125 0.029909566597780213 0.015979417425114661 0.014053130813408643
leaf_count=34 6 21 21 23
internal_value=0 -0.133526 -0.133468 -0.133417
internal_weight=0 0.080691 0.0599421 0.0300325
internal_count=105 71 65 44
is_linear=0
shrinkage=0.2


Tree=103
num_leaves=5
num_cat=0
split_feature=1 0 1 0
split_gain=0.0698738 0.0434616 0.342525 0.0922983
threshold=2.6500000000000008 6.1500000000000012 2.7500000000000004 5.9500000000000011
decision_type=2 2 2 2
left_child=-1 2 -2 -4
right_child=1 -3 3 -5
leaf_value=-0.043061779846010048 0.19916172681775929 -0.010496115687683922 0.023986713134706718 -0.12297245600542975
leaf_weight=0.97771391319111023 0.39133747830055676 0.90168333519250143 0.43773305718787014 0.28048274375032634
leaf_count=16 5 34 43 7
internal_value=0 0.0221174 0.048621 -0.0334048
internal_weight=0 2.01124 1.10955 0.718216
internal_count=105 89 55 50
is_linear=0
shrinkage=0.2


Tree=104
num_leaves=5
num_cat=0
split_feature=1 0 1 0
split_gain=0.0798304 0.0565842 0.316769 0.114536
threshold=2.6500000000000008 6.1500000000000012 2.7500000000000004 5.9500000000000011
decision_type=2 2 2 2
left_child=-1 2 -2 -4
right_child=1 -3 3 -5
leaf_value=0.047521270641278326 -0.19719487567899818 0.013758764653542338 -0.04058213482464914 0.12753286631048524
leaf_weight=0.96210433030501041 0.39087391737848498 0.91112840536516149 0.3884597032883903 0.27819054073188454
leaf_count=16 5 34 43 7
internal_value=0 -0.0227711 -0.0542441 0.0295716
internal_weight=0 1.96865 1.05752 0.66665
internal_count=105 89 55 50
is_linear=0
shrinkage=0.2


Tree=105
num_leaves=5
num_cat=0
split_feature=2 0 0 2
split_gain=0.0524396 1.5675e-08 2.36208e-09 1.61724e-10
threshold=2.4500000000000006 5.5500000000000007 6.0500000000000007 5.1500000000000012
decision_type=2 2 2 2
left_child=-1 -2 -3 -4
right_child=1 2 3 -5
leaf_value=0.13374345452035344 -0.13366181795940404 -0.13349114728382347 -0.1334207545578347 -0.13338927707043852
leaf_weight=0.049978642142377794 0.018719892832450569 0.026209825853584334 0.014220194716472179 0.012070745200617239
leaf_count=34 6 21 21 23
internal_value=0 -0.133505 -0.133449 -0.133406
internal_weight=0 0.0712207 0.0525008 0.0262909
internal_count=105 71 65 44
is_linear=0
shrinkage=0.2


Tree=106
num_leaves=4
num_cat=0
split_feature=2 0 2
split_gain=0.054152 0.0782742 0.00323292
threshold=4.7500000000000009 4.9500000000000011 3.9500000000000006
decision_type=2 2 2
left_child=1 -1 -3
right_child=-2 2 -4
leaf_value=-0.04929908787131429 -0.012358286272295687 0.095913145828437393 0.13460361816917762
leaf_weight=0.18394108104985241 2.3599444692954421 0.22939067764673382 0.13857154583092779
leaf_count=14 39 28 24
internal_value=0 0.0572305 0.110484
internal_weight=0 0.551903 0.367962
internal_count=105 66 52
is_linear=0
shrinkage=0.2


Tree=107
num_leaves=5
num_cat=0
split_feature=2 0 0 0
split_gain=0.0568741 0.241536 0.2778 0.00391352
threshold=5.0500000000000007 6.0500000000000007 5.9500000000000011 5.1500000000000012
decision_type=2 2 2 2
left_child=1 2 3 -1
right_child=-2 -3 -4 -5
leaf_value=-0.033843590750930928 0.037265637373287357 -0.12515005122756903 0.14349220965162196 -0.063810424748491301
leaf_weight=0.30959869099751836 1.0464275232516227 0.59945804812014092 0.50430912431329489 0.39894620321865659
leaf_count=29 31 18 4 23
internal_value=0 -0.0212947 0.0300362 -0.0507164
internal_weight=0 1.81231 1.21285 0.708545
internal_count=105 74 56 52
is_linear=0
shrinkage=0.2


Tree=108
num_leaves=4
num_cat=0
split_feature=2 3 3
split_gain=0.0463814 6.0756e-09 6.60228e-10
threshold=2.4500000000000006 1.2500000000000002 1.5500000000000003
decision_type=2 2 2
left_child=-1 -2 -3
right_child=1 2 -4
leaf_value=0.13373406081989242 -0.13358079174570267 -0.13340264604532778 -0.13345673572606834
leaf_weight=0.046247164893429726 0.017256077495403588 0.01312290238274727 0.028917774092406034
leaf_count=34 11 23 37
internal_value=0 -0.133481 -0.13344
internal_weight=0 0.0592968 0.0420407
internal_count=105 71 60
is_linear=0
shrinkage=0.2


Tree=109
num_leaves=5
num_cat=0
split_feature=3 1 1 2
split_gain=0.296888 0.0853233 0.0469616 0.00831576
threshold=1.8500000000000003 2.6500000000000008 2.8500000000000001 4.9500000000000011
decision_type=2 2 2 2
left_child=1 -1 -3 -4
right_child=-2 2 3 -5
leaf_value=-0.0211605927459225 -0.13940842450229615 0.11267660333098446 0.017687308738360687 0.053914329549282908
leaf_weight=0.80159103602636683 0.49578087264671911 0.46282498288201157 0.50721009145490803 0.50660041905939579
leaf_count=14 24 9 52 6
internal_value=0 0.0313716 0.0598887 0.0357899
internal_weight=0 2.27823 1.47664 1.01381
internal_count=105 81 67 58
is_linear=0
shrinkage=0.2


Tree=110
num_leaves=6
num_cat=0
split_feature=3 1 1 0 0
split_gain=0.304012 0.099208 0.0386097 0.0279159 0.145429
threshold=1.8500000000000003 2.6500000000000008 2.8500000000000001 6.5500000000000007 5.9500000000000011
decision_type=2 2 2 2 2
left_child=1 -1 -3 4 -4
right_child=-2 2 3 -5 -6
leaf_value=0.024763700575782185 0.13943416283969681 -0.11129204428643147 -0.11888303654800275 -0.075833256763740198 0.09725541430816842
leaf_weight=0.78905590291833583 0.50740306358784426 0.46010308270342626 0.24260252349995426 0.47141842287965119 0.25583811954129487
leaf_count=14 24 9 39 8 11
internal_value=0 -0.032165 -0.0635784 -0.0409429 -0.00794414
internal_weight=0 2.21902 1.42996 0.969859 0.498441
internal_count=105 81 67 58 50
is_linear=0
shrinkage=0.2


Tree=111
num_leaves=5
num_cat=0
split_feature=2 0 0 2
split_gain=0.0402534 7.42309e-09 8.27895e-10 8.59524e-11
threshold=2.4500000000000006 5.4500000000000011 6.0500000000000007 5.1500000000000012
decision_type=2 2 2 2
left_child=-1 -2 -3 -4
right_child=1 2 3 -5
leaf_value=0.1336902467069693 -0.13359508521592006 -0.1334486889491498 -0.13340155566262266 -0.13337396308526897
leaf_weight=0.04086046974407509 0.012997608631849289 0.019127160820062272 0.01003373836283572 0.0082114180841017514
leaf_count=34 5 22 21 23
internal_value=0 -0.133465 -0.13342 -0.133389
internal_weight=0 0.0503699 0.0373723 0.0182452
internal_count=105 71 66 44
is_linear=0
shrinkage=0.2


Tree=112
num_leaves=6
num_cat=0
split_feature=1 3 0 1 1
split_gain=0.0274196 0.0558697 0.0230405 0.0422267 0.0186143
threshold=2.7500000000000004 1.6500000000000001 6.9500000000000011 2.8500000000000001 3.1500000000000008
decision_type=2 2 2 2 2
left_child=-1 2 3 -2 -5
right_child=1 -3 -4 4 -6
leaf_value=0.021895816881356472 -0.11507581748149127 0.0066527932972913666 -0.14414861074270011 0.1196818877872093 -0.043949494190315831
leaf_weight=1.222156804520637 0.14980243740137644 0.9884352320805192 0.1482248401734978 0.062611359258880839 0.050027272431179881
leaf_count=22 6 26 2 20 29
internal_value=0 -0.0191083 -0.0811128 -0.0455107 0.0470067
internal_weight=0 1.3991 0.410666 0.262441 0.112639
internal_count=105 83 57 55 49
is_linear=0
shrinkage=0.2


Tree=113
num_leaves=6
num_cat=0
split_feature=2 0 0 3 2
split_gain=0.0599267 0.185995 0.22222 0.0741653 8.04708e-06
threshold=5.0500000000000007 6.0500000000000007 5.9500000000000011 1.6500000000000001 3.4000000000000004
decision_type=2 2 2 2 2
left_child=1 2 3 4 -1
right_child=-2 -3 -4 -5 -6
leaf_value=-0.13816178931045459 0.039985839318050539 -0.12008428132336993 0.13256358265481438 0.00282927172815731 -0.13583760411245757
leaf_weight=0.14620551788539182 0.96236174879595626 0.53066229278920207 0.44683908298611641 0.39079269021749496 0.10058046321501024
leaf_count=37 31 18 4 3 12
internal_value=0 -0.0230618 0.0244164 -0.0513771 -0.137215
internal_weight=0 1.61508 1.08442 0.637579 0.246786
internal_count=105 74 56 52 49
is_linear=0
shrinkage=0.2


Tree=114
num_leaves=4
num_cat=0
split_feature=3 0 3
split_gain=0.0215963 6.23794e-10 3.31066e-12
threshold=1.0500000000000003 6.0500000000000007 1.6500000000000001
decision_type=2 2 2
left_child=-1 -2 -3
right_child=1 2 -4
leaf_value=0.079182175041867212 -0.13343633532036306 -0.13338520960131306 -0.13337937647109618
leaf_weight=0.043464662798214704 0.018452320218784735 0.0072203318995889268 0.0084430543356575072
leaf_count=38 23 19 25
internal_value=0 -0.133411 -0.133382
internal_weight=0 0.0341157 0.0156634
internal_count=105 67 44
is_linear=0
shrinkage=0.2


Tree=115
num_leaves=4
num_cat=0
split_feature=2 3 2
split_gain=0.0354987 0.166409 0.0077103
threshold=4.9500000000000011 1.6500000000000001 3.4000000000000004
decision_type=2 2 2
left_child=1 2 -1
right_child=-2 -3 -4
leaf_value=0.083841864046229578 -0.019603455954321211 -0.044920240304271809 0.13819591502947876
leaf_weight=0.16266668218304425 1.477835457306355 0.54920871555805206 0.2913974704570137
leaf_count=37 34 4 30
internal_value=0 0.0291423 0.118724
internal_weight=0 1.00327 0.454064
internal_count=105 71 67
is_linear=0
shrinkage=0.2


Tree=116
num_leaves=4
num_cat=0
split_feature=1 2 0
split_gain=0.045289 0.0685463 0.14174
threshold=2.6500000000000008 5.0500000000000007 6.0500000000000007
decision_type=2 2 2
left_child=-1 2 -2
right_child=1 -3 -4
leaf_value=0.038659076346550601 0.0048833079879558924 0.021308830615162668 -0.16917083777949815
leaf_weight=0.81990671221865374 0.49512622643669579 0.82719520153477788 0.30086978618055582
leaf_count=16 46 28 15
internal_value=0 -0.0190082 -0.0609055
internal_weight=0 1.62319 0.795996
internal_count=105 89 61
is_linear=0
shrinkage=0.2


Tree=117
num_leaves=5
num_cat=0
split_feature=2 0 0 2
split_gain=0.0319483 5.18554e-09 3.41919e-10 4.85652e-11
threshold=2.4500000000000006 5.0500000000000007 6.0500000000000007 5.1500000000000012
decision_type=2 2 2 2
left_child=-1 -2 -3 -4
right_child=1 2 3 -5
leaf_value=0.13363050347815258 -0.13357011332862176 -0.13342077031136979 -0.13338720055595868 -0.13336271595865237
leaf_weight=0.034616830118466169 0.0096230702474713326 0.014432512718485668 0.0071633314582868479 0.0059170354943489656
leaf_count=34 4 23 21 23
internal_value=0 -0.133444 -0.1334 -0.133376
internal_weight=0 0.0371359 0.0275129 0.0130804
internal_count=105 71 67 44
is_linear=0
shrinkage=0.2


Tree=118
num_leaves=4
num_cat=0
split_feature=1 0 1
split_gain=0.0404259 0.054148 0.16521
threshold=2.6500000000000008 6.1500000000000012 2.7500000000000004
decision_type=2 2 2
left_child=-1 2 -2
right_child=1 -3 -4
leaf_value=-0.036880676648818472 0.16208437004835571 -0.023037742862271018 -0.015295718593565414
leaf_weight=0.78171272459439967 0.3359415424056349 0.70035053574247286 0.56039709487231448
leaf_count=16 5 34 50
internal_value=0 0.018629 0.0511851
internal_weight=0 1.59669 0.896339
internal_count=105 89 55
is_linear=0
shrinkage=0.2


Tree=119
num_leaves=4
num_cat=0
split_feature=1 0 3
split_gain=0.0459519 0.0639417 0.233884
threshold=2.6500000000000008 6.1500000000000012 1.6500000000000001
decision_type=2 2 2
left_child=-1 2 -2
right_child=1 -3 -4
leaf_value=0.039657318469752803 -0.17982334722521529 0.024802823507766254 0.03135599664643561
leaf_weight=0.77304303133860264 0.35890961992117787 0.70428315992467105 0.50486018601804972
leaf_count=16 48 34 7
internal_value=0 -0.0199239 -0.0563923
internal_weight=0 1.56805 0.86377
internal_count=105 89 55
is_linear=0
shrinkage=0.2


Tree=120
num_leaves=5
num_cat=0
split_feature=2 0 0 2
split_gain=0.0276378 3.91789e-09 2.19732e-10 3.37163e-11
threshold=2.4500000000000006 5.0500000000000007 6.0500000000000007 5.1500000000000012
decision_type=2 2 2 2
left_child=-1 -2 -3 -4
right_child=1 2 3 -5
leaf_value=0.13358942484497902 -0.133547896428796 -0.13340900364226951 -0.13338031348545762 -0.13335837396341918
leaf_weight=0.029661191831110045 0.0086414269171655178 0.012498384538048413 0.0063034347913344391 0.0050438202742952853
leaf_count=34 4 23 21 23
internal_value=0 -0.133433 -0.133391 -0.133371
internal_weight=0 0.0324871 0.0238456 0.0113473
internal_count=105 71 67 44
is_linear=0
shrinkage=0.2


Tree=121
num_leaves=5
num_cat=0
split_feature=2 0 0 2
split_gain=0.0540046 0.128134 0.187229 0.0321705
threshold=5.0500000000000007 6.0500000000000007 5.9500000000000011 4.4500000000000011
decision_type=2 2 2 2
left_child=1 2 3 -1
right_child=-2 -3 -4 -5
leaf_value=0.10629696623399786 -0.040360885785078404 0.10964263121957379 -0.12829566892027108 0.013769585385519057
leaf_weight=0.24667159249656856 0.81958324415609229 0.47190826362930227 0.37636176962405443 0.38474650657735765
leaf_count=48 31 18 4 4
internal_value=0 0.023636 -0.0166379 0.0499166
internal_weight=0 1.47969 1.00778 0.631418
internal_count=105 74 56 52
is_linear=0
shrinkage=0.2


Tree=122
num_leaves=5
num_cat=0
split_feature=2 0 0 0
split_gain=0.0580595 0.123091 0.197629 0.0105834
threshold=5.0500000000000007 6.0500000000000007 5.9500000000000011 5.0500000000000007
decision_type=2 2 2 2
left_child=1 2 3 -1
right_child=-2 -3 -4 -5
leaf_value=-0.022903023908532858 0.041560684643413955 -0.10911401128071303 0.12906124455441276 -0.077581115402844569
leaf_weight=0.23291282113859801 0.82694554468616832 0.46861770818941295 0.3765355059877038 0.36116780986230879
leaf_count=22 31 18 4 30
internal_value=0 -0.0249375 0.0157034 -0.0561442
internal_weight=0 1.43923 0.970616 0.594081
internal_count=105 74 56 52
is_linear=0
shrinkage=0.2


Tree=123
num_leaves=4
num_cat=0
split_feature=2 2 3
split_gain=0.024741 1.40796e-09 1.07633e-10
threshold=2.4500000000000006 3.9500000000000006 1.5500000000000003
decision_type=2 2 2
left_child=-1 -2 -3
right_child=1 2 -4
leaf_value=0.13358257700460019 -0.13348625192749702 -0.13336344715198331 -0.13339538007755658
leaf_weight=0.028650012711295858 0.0076880724518559864 0.006255362262891139 0.012989416994969361
leaf_count=34 7 27 37
internal_value=0 -0.133414 -0.133385
internal_weight=0 0.0269329 0.0192448
internal_count=105 71 64
is_linear=0
shrinkage=0.2


Tree=124
num_leaves=4
num_cat=0
split_feature=2 3 2
split_gain=0.0361667 0.121705 0.00588248
threshold=4.9500000000000011 1.6500000000000001 3.4000000000000004
decision_type=2 2 2
left_child=1 2 -1
right_child=-2 -3 -4
leaf_value=0.085885063546667473 -0.020889955293013417 -0.032795358975567589 0.137351511632016
leaf_weight=0.14345713451621156 1.2703564958646891 0.49961940199136734 0.23329552431823686
leaf_count=37 34 4 30
internal_value=0 0.0319261 0.117754
internal_weight=0 0.876372 0.376753
internal_count=105 71 67
is_linear=0
shrinkage=0.2


Tree=125
num_leaves=4
num_cat=0
split_feature=2 0 2
split_gain=0.0411435 0.0369231 0.180631
threshold=4.9500000000000011 5.6500000000000012 4.4500000000000011
decision_type=2 2 2
left_child=1 2 -1
right_child=-2 -3 -4
leaf_value=-0.13652130545074243 0.021820897794039174 -0.072456586192414116 0.14343561202869459
leaf_weight=0.17372739821075844 1.276579776778817 0.4690569733556913 0.19641067832708359
leaf_count=40 34 29 2
internal_value=0 -0.0351902 0.0120355
internal_weight=0 0.839195 0.370138
internal_count=105 71 42
is_linear=0
shrinkage=0.2


Tree=126
num_leaves=4
num_cat=0
split_feature=3 0 0
split_gain=0.0142842 1.18106e-10 9.89867e-13
threshold=1.0500000000000003 6.0500000000000007 6.5500000000000007
decision_type=2 2 2
left_child=-1 -2 -3
right_child=1 2 -4
leaf_value=0.092463194219488481 -0.13339368706938187 -0.13335824749347761 -0.13336273638306342
leaf_weight=0.031976237340131775 0.0093808553538110573 0.0039988013450056314 0.0038634626980638131
leaf_count=38 23 22 22
internal_value=0 -0.133379 -0.13336
internal_weight=0 0.0172431 0.00786226
internal_count=105 67 44
is_linear=0
shrinkage=0.2


Tree=127
num_leaves=5
num_cat=0
split_feature=1 1 1 0
split_gain=0.0465176 0.151258 0.0669954 0.10754
threshold=2.6500000000000008 2.7500000000000004 3.1500000000000008 6.4500000000000011
decision_type=2 2 2 2
left_child=-1 -2 3 -3
right_child=1 2 -4 -5
leaf_value=-0.044368774049765525 0.14393237478814133 -0.11877699579024621 0.072276645958143496 0.026119526185938186
leaf_weight=0.62695279350737143 0.31215850208536711 0.38847393789910689 0.27121744595933706 0.43354509916389361
leaf_count=16 6 27 38 18
internal_value=0 0.0211433 -0.0139175 -0.0423564
internal_weight=0 1.40539 1.09324 0.822019
internal_count=105 89 83 45
is_linear=0
shrinkage=0.2


Tree=128
num_leaves=5
num_cat=0
split_feature=1 1 2 2
split_gain=0.051183 0.146277 0.256849 0.087075
threshold=2.6500000000000008 2.7500000000000004 5.0500000000000007 4.9500000000000011
decision_type=2 2 2 2
left_child=-1 -2 3 -3
right_child=1 2 -4 -5
leaf_value=0.046371208225682824 -0.1431962709021711 -0.011594009316590903 0.13927271792366219 -0.16386636686418998
leaf_weight=0.62193297501653466 0.3120735183765645 0.44249332970502997 0.39986126078292727 0.22741562128067017
leaf_count=16 6 58 24 1
internal_value=0 -0.022719 0.0124267 -0.0632863
internal_weight=0 1.38184 1.06977 0.669909
internal_count=105 89 83 59
is_linear=0
shrinkage=0.2


Tree=129
num_leaves=4
num_cat=0
split_feature=2 3 3
split_gain=0.0202717 1.60899e-09 3.98758e-11
threshold=2.4500000000000006 1.0500000000000003 1.5500000000000003
decision_type=2 2 2
left_child=-1 -2 -3
right_child=1 2 -4
leaf_value=0.13356942212204778 -0.13349727876101819 -0.13335786652424805 -0.13337937714833498
leaf_weight=0.025887707917718217 0.0056000355252763248 0.0055226123986358297 0.0091727516846731305
leaf_count=34 4 30 37
internal_value=0 -0.133406 -0.133371
internal_weight=0 0.0202954 0.0146954
internal_count=105 71 67
is_linear=0
shrinkage=0.2


Tree=130
num_leaves=4
num_cat=0
split_feature=3 0 1
split_gain=0.0275369 0.0809903 0.136969
threshold=1.6500000000000001 6.0500000000000007 2.3500000000000001
decision_type=2 2 2
left_child=1 2 -1
right_child=-2 -3 -4
leaf_value=-0.061038379638199219 -0.023276758750047338 -0.055147096329563952 0.13740333580894923
leaf_weight=0.2138741728849709 0.94436251814477146 0.32776481128530577 0.39809373038588092
leaf_count=4 33 19 49
internal_value=0 0.0250812 0.0680507
internal_weight=0 0.939733 0.611968
internal_count=105 72 53
is_linear=0
shrinkage=0.2


Tree=131
num_leaves=5
num_cat=0
split_feature=2 3 3 3
split_gain=0.0413046 0.119997 1.25582e-05 5.61578e-06
threshold=4.9500000000000011 1.6500000000000001 1.4500000000000002 1.0500000000000003
decision_type=2 2 2 2
left_child=1 2 3 -1
right_child=-2 -3 -4 -5
leaf_value=-0.13670064644043597 0.022796082939642758 0.028350274741589378 -0.13845119703022063 -0.13437658670675637
leaf_weight=0.1065334741579137 1.1244318534154443 0.43597739189863205 0.11990071082254872 0.068220954577554949
leaf_count=38 34 4 8 21
internal_value=0 -0.038283 -0.136875 -0.135793
internal_weight=0 0.730633 0.294655 0.174754
internal_count=105 71 67 59
is_linear=0
shrinkage=0.2


Tree=132
num_leaves=4
num_cat=0
split_feature=3 0 0
split_gain=0.0111251 4.21601e-11 1.01228e-12
threshold=1.0500000000000003 6.0500000000000007 6.5500000000000007
decision_type=2 2 2
left_child=-1 -2 -3
right_child=1 2 -4
leaf_value=0.091196303128347533 -0.13337646278849929 -0.13335052280151086 -0.13335587242227762
leaf_weight=0.030468619588646106 0.0067502271558623761 0.0029696194033022039 0.0027024463670386467
leaf_count=38 23 22 22
internal_value=0 -0.133366 -0.133353
internal_weight=0 0.0124223 0.00567207
internal_count=105 67 44
is_linear=0
shrinkage=0.2


Tree=133
num_leaves=4
num_cat=0
split_feature=2 1 0
split_gain=0.0327524 0.107642 0.0493746
threshold=5.0500000000000007 2.8500000000000001 6.0500000000000007
decision_type=2 2 2
left_child=1 -1 -3
right_child=-2 2 -4
leaf_value=-0.038511087808145154 -0.034918300819540372 0.036563899326929564 0.15858660987899975
leaf_weight=0.58440016969689146 0.64602361363358807 0.33845273946644738 0.21812903502723202
leaf_count=21 31 41 12
internal_value=0 0.0214391 0.0843856
internal_weight=0 1.14098 0.556582
internal_count=105 74 53
is_linear=0
shrinkage=0.2


Tree=134
num_leaves=5
num_cat=0
split_feature=2 0 0 0
split_gain=0.0360692 0.0642112 0.125825 0.0757799
threshold=5.0500000000000007 6.0500000000000007 5.9500000000000011 5.6500000000000012
decision_type=2 2 2 2
left_child=1 2 3 -1
right_child=-2 -3 -4 -5
leaf_value=0.013277006968928334 0.035702015925225594 -0.090252107942303483 0.11821797471764339 -0.153391296564236
leaf_weight=0.27285805503561256 0.6496464798692615 0.38035044982098043 0.27388988854363561 0.18184334804209357
leaf_count=42 31 18 4 10
internal_value=0 -0.0236434 0.0111287 -0.0533767
internal_weight=0 1.10894 0.728591 0.454701
internal_count=105 74 56 52
is_linear=0
shrinkage=0.2


Tree=135
num_leaves=4
num_cat=0
split_feature=2 3 3
split_gain=0.0172039 1.56146e-09 1.71679e-11
threshold=2.4500000000000006 1.0500000000000003 1.5500000000000003
decision_type=2 2 2
left_child=-1 -2 -3
right_child=1 2 -4
leaf_value=0.13355841231945609 -0.13349258246131124 -0.13335064282029216 -0.13336733426258549
leaf_weight=0.02422165175084956 0.0054967187170404932 0.0039202362531796098 0.0066392439948685933
leaf_count=34 4 30 37
internal_value=0 -0.133406 -0.133361
internal_weight=0 0.0160562 0.0105595
internal_count=105 71 67
is_linear=0
shrinkage=0.2


Tree=136
num_leaves=4
num_cat=0
split_feature=3 0 1
split_gain=0.0341237 0.0789201 0.105112
threshold=1.6500000000000001 6.0500000000000007 2.3500000000000001
decision_type=2 2 2
left_child=1 2 -1
right_child=-2 -3 -4
leaf_value=-0.047756830694572872 -0.026947327948550023 -0.055303555715292857 0.13687098060828448
leaf_weight=0.18667955696582794 0.85112046264111996 0.28588984109228477 0.36355041860952042
leaf_count=4 33 19 49
internal_value=0 0.0299402 0.0742313
internal_weight=0 0.83612 0.55023
internal_count=105 72 53
is_linear=0
shrinkage=0.2


Tree=137
num_leaves=5
num_cat=0
split_feature=3 2 2 0
split_gain=0.0387112 0.0986259 1.53631e-05 3.75588e-06
threshold=1.6500000000000001 4.9500000000000011 4.5500000000000007 5.0500000000000007
decision_type=2 2 2 2
left_child=1 2 3 -1
right_child=-2 -3 -4 -5
leaf_value=-0.13634992398332946 0.027741993316929277 0.014121533833315237 -0.13891810893789067 -0.1345151390428605
leaf_weight=0.096469175235142757 0.85399404843337834 0.55137878656387329 0.074465812445851043 0.083044479337331722
leaf_count=21 33 5 9 37
internal_value=0 -0.0333797 -0.136503 -0.135501
internal_weight=0 0.805358 0.253979 0.179514
internal_count=105 72 67 58
is_linear=0
shrinkage=0.2


Tree=138
num_leaves=5
num_cat=0
split_feature=2 3 0 0
split_gain=0.0155458 1.01191e-09 1.82519e-11 1.68869e-13
threshold=2.4500000000000006 1.0500000000000003 6.0500000000000007 6.5500000000000007
decision_type=2 2 2 2
left_child=-1 -2 -3 -4
right_child=1 2 3 -5
leaf_value=0.13355972488886447 -0.13347158587844735 -0.13336575381054203 -0.13334646597785102 -0.1333490207052391
leaf_weight=0.024056987167568877 0.0047441036804229961 0.0047825139408814721 0.0022437441475631204 0.0019210772006772459
leaf_count=34 4 23 22 22
internal_value=0 -0.133397 -0.133357 -0.133348
internal_weight=0 0.0136914 0.00894734 0.00416482
internal_count=105 71 67 44
is_linear=0
shrinkage=0.2


Tree=139
num_leaves=5
num_cat=0
split_feature=1 1 1 0
split_gain=0.0292734 0.0775732 0.0526598 0.0792642
threshold=2.6500000000000008 2.7500000000000004 3.1500000000000008 6.4500000000000011
decision_type=2 2 2 2
left_child=-1 -2 3 -3
right_child=1 2 -4 -5
leaf_value=-0.038662156035449209 0.1173757678279469 -0.11769528195893364 0.072222915234839188 0.026050064944141228
leaf_weight=0.50185998692177247 0.25073299899668178 0.282700132127502 0.23111576330848038 0.33560104461503215
leaf_count=16 6 27 38 18
internal_value=0 0.0196262 -0.00922773 -0.0396733
internal_weight=0 1.10015 0.849417 0.618301
internal_count=105 89 83 45
is_linear=0
shrinkage=0.2


Tree=140
num_leaves=5
num_cat=0
split_feature=1 1 2 2
split_gain=0.033531 0.0733955 0.188248 0.0577578
threshold=2.6500000000000008 2.7500000000000004 5.0500000000000007 4.9500000000000011
decision_type=2 2 2 2
left_child=-1 -2 3 -3
right_child=1 2 -4 -5
leaf_value=0.040696075036570994 -0.11688405022850906 -0.016511126569842875 0.13730183896381326 -0.15511520087265038
leaf_weight=0.49714790251164243 0.25071698279498356 0.35813280783486334 0.28765334794297814 0.18105743825435638
leaf_count=16 6 58 24 1
internal_value=0 -0.0220938 0.00664865 -0.0630537
internal_weight=0 1.07756 0.826844 0.53919
internal_count=105 89 83 59
is_linear=0
shrinkage=0.2


Tree=141
num_leaves=5
num_cat=0
split_feature=1 0 0 0
split_gain=0.00840196 0.00177799 0.000183291 8.73771e-12
threshold=3.2500000000000004 4.9500000000000011 5.0500000000000007 6.0500000000000007
decision_type=2 2 2 2
left_child=1 -1 -3 -4
right_child=-2 2 3 -5
leaf_value=0.034897219955142424 0.12923564860085932 -0.078129844143080787 -0.13336004031289381 -0.13334594509840494
leaf_weight=0.0045210563694126913 0.01890416113747051 0.0036369513545650989 0.0038590456915699178 0.0032330018657376058
leaf_count=11 29 4 22 39
internal_value=0 -0.0703035 -0.114634 -0.133354
internal_weight=0 0.0152501 0.010729 0.00709205
internal_count=105 76 65 61
is_linear=0
shrinkage=0.2


Tree=142
num_leaves=4
num_cat=0
split_feature=3 0 0
split_gain=0.161866 0.0186972 0.025673
threshold=1.8500000000000003 5.9500000000000011 5.4500000000000011
decision_type=2 2 2
left_child=1 2 -1
right_child=-2 -3 -4
leaf_value=0.017470609549305325 -0.13708368687407479 0.015978117382176468 0.12193543349605554
leaf_weight=0.18830454609997083 0.27587663359008741 0.83431738350191154 0.18810085815493949
leaf_count=36 24 29 16
internal_value=0 0.032672 0.0696748
internal_weight=0 1.21072 0.376405
internal_count=105 81 52
is_linear=0
shrinkage=0.2


Tree=143
num_leaves=4
num_cat=0
split_feature=3 0 0
split_gain=0.166089 0.0263881 0.0224912
threshold=1.8500000000000003 5.9500000000000011 5.0500000000000007
decision_type=2 2 2
left_child=1 2 -1
right_child=-2 -3 -4
leaf_value=-0.023204371210740805 0.13708898436476497 -0.015444166101818493 -0.12547638028708349
leaf_weight=0.15248187669840241 0.27764456905424606 0.83367495177662931 0.19731123318115351
leaf_count=22 24 29 30
internal_value=0 -0.0347889 -0.0808939
internal_weight=0 1.18347 0.349793
internal_count=105 81 52
is_linear=0
shrinkage=0.2


Tree=144
num_leaves=5
num_cat=0
split_feature=2 0 0 0
split_gain=0.0123927 6.01382e-10 4.7107e-12 1.23599e-13
threshold=2.4500000000000006 5.0500000000000007 6.0500000000000007 6.5500000000000007
decision_type=2 2 2 2
left_child=-1 -2 -3 -4
right_child=1 2 3 -5
leaf_value=0.13352363601633138 -0.13344668289792383 -0.13335482939190088 -0.13334264003655849 -0.13334524899476247
leaf_weight=0.020483006461290643 0.0043348655162844807 0.0032572621685176273 0.0016447195739601739 0.0013008067126065725
leaf_count=34 4 23 22 22
internal_value=0 -0.13339 -0.13335 -0.133344
internal_weight=0 0.0105377 0.00620279 0.00294553
internal_count=105 71 67 44
is_linear=0
shrinkage=0.2


Tree=145
num_leaves=3
num_cat=0
split_feature=2 0
split_gain=0.0225365 0.0177787
threshold=4.9500000000000011 5.6500000000000012
decision_type=2 2
left_child=1 -1
right_child=-2 -3
leaf_value=-0.0097350820999994314 -0.020780021826137363 0.061663981195740472
leaf_weight=0.24452991980069783 0.8214340559206903 0.3247830999607686
leaf_count=42 34 29
internal_value=0 0.0309968
internal_weight=0 0.569313
internal_count=105 71
is_linear=0
shrinkage=0.2


Tree=146
num_leaves=4
num_cat=0
split_feature=3 0 1
split_gain=0.0214324 0.0553444 0.0977562
threshold=1.6500000000000001 6.0500000000000007 2.3500000000000001
decision_type=2 2 2
left_child=1 2 -1
right_child=-2 -3 -4
leaf_value=0.047205182470871451 0.023376593789708914 0.048007965315627815 -0.1484507732196988
leaf_weight=0.1697533578844741 0.69099279772490263 0.24996159013244323 0.25647073459367675
leaf_count=4 33 19 49
internal_value=0 -0.0267085 -0.0705264
internal_weight=0 0.676186 0.426224
internal_count=105 72 53
is_linear=0
shrinkage=0.2


Tree=147
num_leaves=5
num_cat=0
split_feature=2 0 0 0
split_gain=0.0107177 4.1335e-10 2.7537e-12 1.25236e-13
threshold=2.4500000000000006 5.0500000000000007 6.0500000000000007 6.5500000000000007
decision_type=2 2 2 2
left_child=-1 -2 -3 -4
right_child=1 2 3 -5
leaf_value=0.1334985192414872 -0.13343361182599969 -0.13335153978370043 -0.13334110268320409 -0.133343954301855
leaf_weight=0.01782223726331722 0.0038216717075556517 0.0027754537914006505 0.0013753209896094631 0.0011158419438288547
leaf_count=34 4 23 22 22
internal_value=0 -0.133384 -0.133347 -0.133342
internal_weight=0 0.00908829 0.00526662 0.00249116
internal_count=105 71 67 44
is_linear=0
shrinkage=0.2


Tree=148
num_leaves=5
num_cat=0
split_feature=2 0 0 0
split_gain=0.0238126 0.0605765 0.0885172 0.00682626
threshold=5.0500000000000007 6.0500000000000007 5.9500000000000011 5.0500000000000007
decision_type=2 2 2 2
left_child=1 2 3 -1
right_child=-2 -3 -4 -5
leaf_value=0.012861073334992019 -0.036107796486764154 0.093064213628855474 -0.11864896491812618 0.068357376049318644
leaf_weight=0.16231341141974553 0.46442626509815454 0.29836245742626488 0.21738422196358442 0.195371452231484
leaf_count=22 31 18 4 30
internal_value=0 0.019941 -0.0179975 0.0431738
internal_weight=0 0.873432 0.575069 0.357685
internal_count=105 74 56 52
is_linear=0
shrinkage=0.2


Tree=149
num_leaves=4
num_cat=0
split_feature=2 1 2
split_gain=0.0259463 0.061357 0.0349142
threshold=5.0500000000000007 2.8500000000000001 4.9500000000000011
decision_type=2 2 2
left_child=1 -1 -3
right_child=-2 2 -4
leaf_value=0.028153814160283681 0.036565753127362793 -0.030902438821636846 -0.15174098584631693
leaf_weight=0.45344863795253332 0.46591049816925079 0.23801990886227031 0.15989050269126892
leaf_count=21 31 52 1
internal_value=0 -0.0221423 -0.0794584
internal_weight=0 0.851359 0.39791
internal_count=105 74 53
is_linear=0
shrinkage=0.2


Tree=150
num_leaves=5
num_cat=0
split_feature=1 3 0 3
split_gain=0.00564445 0.00032401 0.000117904 9.69657e-13
threshold=3.0500000000000003 1.0500000000000003 5.0500000000000007 1.5500000000000003
decision_type=2 2 2 2
left_child=1 -1 -2 -3
right_child=2 3 -4 -5
leaf_value=-0.052759285639438769 0.13358429956517542 -0.13334133535204748 0.099072597892905415 -0.13334790253640202
leaf_weight=0.0044177018862683326 0.0079711930884514004 0.0016224739674726152 0.0078680588394490769 0.002017777847868274
leaf_count=10 12 26 34 23
internal_value=0 -0.0891646 0.116441 -0.133345
internal_weight=0 0.00805795 0.0158393 0.00364025
internal_count=105 59 46 49
is_linear=0
shrinkage=0.2


Tree=151
num_leaves=4
num_cat=0
split_feature=3 0 1
split_gain=0.0286197 0.0474711 0.0609647
threshold=1.6500000000000001 6.0500000000000007 2.3500000000000001
decision_type=2 2 2
left_child=1 2 -1
right_child=-2 -3 -4
leaf_value=-0.027331566670118546 -0.02951034650277104 -0.043719827380874446 0.13081668501084143
leaf_weight=0.15732120571192354 0.63164595235139132 0.2234375003608875 0.25641846877988428
leaf_count=4 33 19 49
internal_value=0 0.030565 0.0706821
internal_weight=0 0.637177 0.41374
internal_count=105 72 53
is_linear=0
shrinkage=0.2


Tree=152
num_leaves=4
num_cat=0
split_feature=2 1 1
split_gain=0.020393 0.0115701 0.0982014
threshold=4.9500000000000011 2.7500000000000004 3.0500000000000003
decision_type=2 2 2
left_child=1 -1 -3
right_child=-2 2 -4
leaf_value=-0.064595121279874088 0.019695875708741102 0.098187691153881262 -0.14390149309285055
leaf_weight=0.23728013292202377 0.73848729219753295 0.15832626204974076 0.11622393001994169
leaf_count=13 34 23 35
internal_value=0 -0.0322494 -0.00429469
internal_weight=0 0.51183 0.27455
internal_count=105 71 58
is_linear=0
shrinkage=0.2


Tree=153
num_leaves=4
num_cat=0
split_feature=2 3 3
split_gain=0.00878921 2.24429e-10 1.88818e-12
threshold=2.4500000000000006 1.0500000000000003 1.5500000000000003
decision_type=2 2 2
left_child=-1 -2 -3
right_child=1 2 -4
leaf_value=0.13347600661168335 -0.13341808040687872 -0.13333957190632598 -0.13334847349601642
leaf_weight=0.016526605817489326 0.0028546334542625109 0.0014680716499242408 0.0027176018320460571
leaf_count=34 4 30 37
internal_value=0 -0.133375 -0.133345
internal_weight=0 0.00704031 0.00418567
internal_count=105 71 67
is_linear=0
shrinkage=0.2


Tree=154
num_leaves=4
num_cat=0
split_feature=3 2 2
split_gain=0.0229136 0.0643342 0.00371826
threshold=1.6500000000000001 4.9500000000000011 3.4000000000000004
decision_type=2 2 2
left_child=1 2 -1
right_child=-2 -3 -4
leaf_value=0.082282236537668182 -0.026795834917269435 -0.020704081960144782 0.13646634076950401
leaf_weight=0.081611326531856321 0.60530721081886441 0.38373949378728867 0.13357054981315741
leaf_count=37 33 5 30
internal_value=0 0.0283811 0.115916
internal_weight=0 0.598921 0.215182
internal_count=105 72 67
is_linear=0
shrinkage=0.2


Tree=155
num_leaves=5
num_cat=0
split_feature=3 2 2 3
split_gain=0.0260757 0.0799074 1.32228e-05 3.02448e-06
threshold=1.6500000000000001 4.9500000000000011 4.7500000000000009 1.0500000000000003
decision_type=2 2 2 2
left_child=1 2 3 -1
right_child=-2 -3 -4 -5
leaf_value=-0.13596380531456953 0.027263162884448439 0.020893206930239435 -0.13877690761118563 -0.13404525437122694
leaf_weight=0.081272364384403772 0.60636228299699724 0.38395525142550468 0.058737306389957666 0.055184295999424648
leaf_count=38 33 5 2 27
internal_value=0 -0.0320757 -0.136268 -0.135188
internal_weight=0 0.579149 0.195194 0.136457
internal_count=105 72 67 65
is_linear=0
shrinkage=0.2


Tree=156
num_leaves=4
num_cat=0
split_feature=2 3 3
split_gain=0.00750756 1.12828e-10 1.37361e-12
threshold=2.4500000000000006 1.0500000000000003 1.5500000000000003
decision_type=2 2 2
left_child=-1 -2 -3
right_child=1 2 -4
leaf_value=0.1334690176566958 -0.13340128158199324 -0.13333841886437445 -0.13334684422955692
leaf_weight=0.015652927511837333 0.002274390548336668 0.0011558288492778956 0.0023430332275893306
leaf_count=34 4 30 37
internal_value=0 -0.133367 -0.133344
internal_weight=0 0.00577325 0.00349886
internal_count=105 71 67
is_linear=0
shrinkage=0.2


Tree=157
num_leaves=5
num_cat=0
split_feature=1 1 2 0
split_gain=0.0257135 0.0480005 0.11608 0.0541117
threshold=2.6500000000000008 2.7500000000000004 5.0500000000000007 6.0500000000000007
decision_type=2 2 2 2
left_child=-1 -2 3 -3
right_child=1 2 -4 -5
leaf_value=-0.042159506847315162 0.10902721747605726 -0.0031515172857376054 -0.13623625046790722 0.14846288083714954
leaf_weight=0.37109149998286739 0.1906185214065772 0.24787290213862434 0.18766302720177919 0.15184183586097788
leaf_count=16 6 44 24 15
internal_value=0 0.0218225 -0.00647761 0.0544431
internal_weight=0 0.777996 0.587378 0.399715
internal_count=105 89 83 59
is_linear=0
shrinkage=0.2


Tree=158
num_leaves=5
num_cat=0
split_feature=1 1 2 0
split_gain=0.0286238 0.0451684 0.123588 0.04725
threshold=2.6500000000000008 2.7500000000000004 5.0500000000000007 6.0500000000000007
decision_type=2 2 2 2
left_child=-1 -2 3 -3
right_child=1 2 -4 -5
leaf_value=0.043399015715052849 -0.10878194140235076 -0.0048786318868386351 0.13623583970206352 -0.14847327214574774
leaf_weight=0.36885942298249574 0.19061431418595021 0.2323936315691526 0.18851280678063631 0.1513616888114484
leaf_count=16 6 44 24 15
internal_value=0 -0.02446 0.0036264 -0.0615156
internal_weight=0 0.762882 0.572268 0.383755
internal_count=105 89 83 59
is_linear=0
shrinkage=0.2


Tree=159
num_leaves=3
num_cat=0
split_feature=1 3
split_gain=0.00355252 0.000504092
threshold=2.8500000000000001 0.50000000000000011
decision_type=2 2
left_child=-1 -2
right_child=1 -3
leaf_value=-0.11241831846581085 0.13336584254610379 0.056710812880453293
leaf_weight=0.0037304560610209583 0.0095478572184219956 0.0053567884542644615
leaf_count=32 32 41
internal_value=0 0.105816
internal_weight=0 0.0149046
internal_count=105 73
is_linear=0
shrinkage=0.2


Tree=160
num_leaves=4
num_cat=0
split_feature=3 2 2
split_gain=0.0197775 0.0506971 0.00284034
threshold=1.6500000000000001 4.9500000000000011 3.4000000000000004
decision_type=2 2 2
left_child=1 2 -1
right_child=-2 -3 -4
leaf_value=0.084356115321715608 -0.025410085919554577 -0.017460532039749517 0.1360074028298793
leaf_weight=0.07070587165071629 0.54367174720391631 0.32378063164651394 0.10708112000247638
leaf_count=37 33 5 30
internal_value=0 0.0296568 0.115466
internal_weight=0 0.501568 0.177787
internal_count=105 72 67
is_linear=0
shrinkage=0.2


Tree=161
num_leaves=5
num_cat=0
split_feature=1 1 2 0
split_gain=0.0169615 0.0274888 0.0901976 0.0012124
threshold=2.6500000000000008 2.7500000000000004 5.0500000000000007 5.9500000000000011
decision_type=2 2 2 2
left_child=-1 -2 3 -3
right_child=1 2 -4 -5
leaf_value=0.032729310764137057 -0.089860391557517738 -0.06608051094859102 0.1355572260225727 -0.042172122508837576
leaf_weight=0.36174681197735481 0.17228630865247396 0.14359751820563815 0.14501107949763536 0.20734683513001073
leaf_count=16 6 41 24 18
internal_value=0 -0.0210368 0.00287132 -0.0519548
internal_weight=0 0.668242 0.495955 0.350944
internal_count=105 89 83 59
is_linear=0
shrinkage=0.2


Tree=162
num_leaves=4
num_cat=0
split_feature=2 3 0
split_gain=0.00587231 4.2739e-11 1.61964e-12
threshold=2.4500000000000006 1.0500000000000003 5.9500000000000011
decision_type=2 2 2
left_child=-1 -2 -3
right_child=1 2 -4
leaf_value=0.1334579319152612 -0.13338393918441213 -0.13334911236442915 -0.13333918129732608
leaf_weight=0.01334925286937505 0.0016782370676082783 0.0011241527865877288 0.001580313776685216
leaf_count=34 4 18 49
internal_value=0 -0.133359 -0.133343
internal_weight=0 0.0043827 0.00270447
internal_count=105 71 67
is_linear=0
shrinkage=0.2


Tree=163
num_leaves=4
num_cat=0
split_feature=3 2 2
split_gain=0.0184292 0.0444206 0.00275311
threshold=1.6500000000000001 4.9500000000000011 3.4000000000000004
decision_type=2 2 2
left_child=1 2 -1
right_child=-2 -3 -4
leaf_value=0.082969753826261983 -0.02488400642789702 -0.015791589000901537 0.13576763839324293
leaf_weight=0.067422175561659969 0.52781824377598241 0.30068977735936642 0.095406494518101681
leaf_count=37 33 5 30
internal_value=0 0.0297696 0.113906
internal_weight=0 0.463518 0.162829
internal_count=105 72 67
is_linear=0
shrinkage=0.2


Tree=164
num_leaves=5
num_cat=0
split_feature=3 2 2 3
split_gain=0.0212583 0.0568618 5.012e-06 1.60187e-06
threshold=1.6500000000000001 4.9500000000000011 4.7500000000000009 1.0500000000000003
decision_type=2 2 2 2
left_child=1 2 3 -1
right_child=-2 -3 -4 -5
leaf_value=-0.13547511634345638 0.025271763328805798 0.015941388989090852 -0.13742461704584444 -0.13383384657285752
leaf_weight=0.065918324326048605 0.52841767593054101 0.30080453492701054 0.044387644273228943 0.037215135710539471
leaf_count=38 33 5 2 27
internal_value=0 -0.0339388 -0.135648 -0.134883
internal_weight=0 0.448326 0.147521 0.103133
internal_count=105 72 67 65
is_linear=0
shrinkage=0.2


Tree=165
num_leaves=4
num_cat=0
split_feature=2 3 1
split_gain=0.0050039 2.10454e-11 8.2342e-13
threshold=2.4500000000000006 1.0500000000000003 2.9500000000000006
decision_type=2 2 2
left_child=-1 -2 -3
right_child=1 2 -4
leaf_value=0.13345190503226081 -0.13337396510069821 -0.1333384937634679 -0.13334610055645821
leaf_weight=0.012658917126827873 0.0013372191433518301 0.0011212288723072561 0.0011561761994016706
leaf_count=34 4 35 32
internal_value=0 -0.133354 -0.133342
internal_weight=0 0.00361462 0.00227741
internal_count=105 71 67
is_linear=0
shrinkage=0.2


Tree=166
num_leaves=5
num_cat=0
split_feature=1 1 2 0
split_gain=0.0255527 0.0231387 0.0739408 0.000158611
threshold=2.6500000000000008 2.7500000000000004 5.0500000000000007 5.9500000000000011
decision_type=2 2 2 2
left_child=-1 -2 3 -3
right_child=1 2 -4 -5
leaf_value=-0.046473464645628619 0.08743525263318791 0.051471373949910519 -0.1352020274100765 0.042976065458626408
leaf_weight=0.30610868371149991 0.16835206405812642 0.15615145017000032 0.11922739318106323 0.20115440283552743
leaf_count=16 6 41 24 18
internal_value=0 0.0236977 0.00118013 0.0466887
internal_weight=0 0.644885 0.476533 0.357306
internal_count=105 89 83 59
is_linear=0
shrinkage=0.2


Tree=167
num_leaves=6
num_cat=0
split_feature=3 0 3 2 2
split_gain=0.0132904 0.0331342 0.0402399 0.0688928 2.61051e-07
threshold=1.6500000000000001 6.0500000000000007 1.5500000000000003 4.9500000000000011 3.4000000000000004
decision_type=2 2 2 2 2
left_child=1 2 3 4 -1
right_child=-2 -3 -4 -5 -6
leaf_value=-0.1350180299854685 0.018796127000421242 0.05209652955252695 -0.147590743153245 0.14059425309912293 -0.13424139892724579
leaf_weight=0.043015267567625415 0.52270685974508524 0.13527323992457241 0.13393429107964039 0.073466040194034576 0.028973245026463701
leaf_count=37 33 19 2 1 13
internal_value=0 -0.0291527 -0.0684917 0.00434264 -0.134705
internal_weight=0 0.414662 0.279389 0.145455 0.0719885
internal_count=105 72 53 51 50
is_linear=0
shrinkage=0.2


Tree=168
num_leaves=5
num_cat=0
split_feature=1 0 3 0
split_gain=0.00215555 0.000457875 5.44279e-05 3.26883e-05
threshold=3.0500000000000003 4.9500000000000011 0.35000000000000003 5.0500000000000007
decision_type=2 2 2 2
left_child=1 -1 -2 -3
right_child=2 3 -4 -5
leaf_value=0.034822640251660757 0.13336286997275679 -0.085133112622160056 0.10538986427723003 -0.1333380392242017
